Version 8.1.1
Min label:-5.036868
Max label:4.993479
bits:18
lda:0
0 ngram: 
0 skip: 
options: --quadratic AB --quadratic AC --quadratic BM --quadratic CM --quadratic BK --quadratic CK
Checksum: -141560733
:0
A^hol*B^ino106:34666:0.024296
A^hol*B^ino13:85541:-0.016919
A^hol*B^ino14:208113:-0.090577
A^hol*B^ino2:52722:-0.170635
A^hol*B^ino25:241613:-0.096442
A^hol*B^ino34:89337:0.000920
A^hol*B^ino39:140525:0.066674
A^hol*B^ino42:11612:-0.124073
A^hol*B^ino45:17112:-0.000001
A^hol*B^ino49:170831:0.058143
A^hol*B^ino5:47583:-0.020698
A^hol*B^ino50:235722:0.052328
A^hol*B^ino61:122578:-0.041216
A^hol*B^ino62:218190:-0.115938
A^hol*B^ino63:52737:-0.110656
A^hol*B^ino8:244567:-0.044236
A^hol*B^ino85:63604:0.052343
A^hol*B^ino9:111633:-0.056314
A^hol*B^ino97:256359:-0.037023
A^hol*C^sno10:229164:0.007361
A^hol*C^sno17:232509:-0.019360
A^hol*C^sno30:34562:-0.006592
A^hol*C^sno32:83770:0.019319
A^hol*C^sno4:58780:-0.022978
A^hol*C^sno7:152480:0.010124
A^holwd*B^ino105:102966:-0.025697
A^holwd*B^ino3:105591:-0.211266
A^holwd*B^ino36:32182:-0.005420
A^holwd*B^ino37:202062:0.018001
A^holwd*B^ino40:233144:0.033280
A^holwd*B^ino64:25226:0.202990
A^holwd*B^ino8:157615:-0.020295
A^holwd*B^ino88:247520:-0.014918
A^holwd*B^ino92:98982:-0.046475
A^holwd*B^ino93:156824:0.034039
A^holwd*B^ino98:225139:0.071340
A^holwd*C^sno26:50846:-0.090134
A^holwd*C^sno3:229164:0.007361
A^holwd*C^sno33:47898:-0.007338
A^holwd*C^sno4:80228:-0.007960
A^holwe:110086:-0.071136
A^holwe*B^ino100:205600:0.058310
A^holwe*B^ino104:55685:-0.010518
A^holwe*B^ino107:54409:0.018964
A^holwe*B^ino108:258681:0.060517
A^holwe*B^ino12:224892:0.014500
A^holwe*B^ino13:105240:-0.026669
A^holwe*B^ino14:260556:-0.141638
A^holwe*B^ino15:48246:0.050070
A^holwe*B^ino16:70963:-0.126801
A^holwe*B^ino17:100939:0.041803
A^holwe*B^ino27:45624:-0.028155
A^holwe*B^ino28:261168:-0.017872
A^holwe*B^ino30:106604:-0.229908
A^holwe*B^ino36:95347:0.289476
A^holwe*B^ino4:138489:-0.192476
A^holwe*B^ino40:165757:-0.063634
A^holwe*B^ino44:155083:-0.067639
A^holwe*B^ino45:38885:-0.068352
A^holwe*B^ino47:178033:0.136073
A^holwe*B^ino49:151154:0.043116
A^holwe*B^ino5:27874:-0.064635
A^holwe*B^ino51:104705:0.192549
A^holwe*B^ino52:136853:-0.105436
A^holwe*B^ino56:117085:-0.217945
A^holwe*B^ino57:211340:-0.060536
A^holwe*B^ino61:68591:-0.025398
A^holwe*B^ino68:17088:-0.001480
A^holwe*B^ino7:259190:0.003229
A^holwe*B^ino72:225939:0.058305
A^holwe*B^ino73:107368:0.053246
A^holwe*B^ino76:199791:0.130343
A^holwe*B^ino78:27914:-0.096648
A^holwe*B^ino85:11593:0.005492
A^holwe*B^ino87:78334:-0.028944
A^holwe*B^ino93:224605:-0.073794
A^holwe*B^ino95:19967:0.311545
A^holwe*B^ino97:212058:-0.286852
A^holwe*C^sno1:255321:-0.016783
A^holwe*C^sno19:95188:-0.050448
A^holwe*C^sno20:261079:-0.010874
A^holwe*C^sno3:161513:-0.038569
A^holwe*C^sno30:21055:-0.041128
A^holwe*C^sno37:162482:-0.006017
A^wd0*B^ino104:195448:-0.013802
A^wd0*B^ino105:178446:-0.015873
A^wd0*B^ino107:194164:-0.050958
A^wd0*B^ino11:43753:-0.017799
A^wd0*B^ino110:126228:-0.273064
A^wd0*B^ino14:121649:-0.109011
A^wd0*B^ino15:171659:-0.016033
A^wd0*B^ino17:239798:-0.001767
A^wd0*B^ino18:171665:-0.099997
A^wd0*B^ino25:88077:-0.061348
A^wd0*B^ino27:168133:0.058988
A^wd0*B^ino37:15990:0.010717
A^wd0*B^ino38:187435:0.048598
A^wd0*B^ino41:216595:0.004456
A^wd0*B^ino42:187036:0.032286
A^wd0*B^ino45:177432:0.008104
A^wd0*B^ino49:27791:-0.009115
A^wd0*B^ino5:151071:0.063527
A^wd0*B^ino51:244732:-0.000271
A^wd0*B^ino54:188544:0.018539
A^wd0*B^ino58:239738:-0.003406
A^wd0*B^ino65:205989:0.003208
A^wd0*B^ino69:247860:0.014687
A^wd0*B^ino73:229781:-0.009422
A^wd0*B^ino74:245522:0.026709
A^wd0*B^ino75:109331:-0.006384
A^wd0*B^ino79:153236:0.028406
A^wd0*B^ino8:85143:0.206608
A^wd0*B^ino80:210448:-0.047476
A^wd0*B^ino83:107077:-0.078075
A^wd0*B^ino86:3395:-0.003208
A^wd0*B^ino87:201475:0.029177
A^wd0*B^ino9:213969:0.097867
A^wd0*B^ino93:85920:-0.124119
A^wd0*C^sno1:116644:-0.018899
A^wd0*C^sno10:100588:-0.012594
A^wd0*C^sno17:97277:0.009230
A^wd0*C^sno18:76794:0.011407
A^wd0*C^sno23:102273:0.064567
A^wd0*C^sno28:32748:0.001917
A^wd0*C^sno32:241914:0.021223
A^wd0*C^sno36:31420:0.013721
A^wd0*C^sno37:22607:-0.005050
A^wd0*C^sno39:3791:0.044157
A^wd0*C^sno41:127622:-0.004001
A^wd0*C^sno6:231562:0.087716
A^wd0*C^sno7:42080:0.000657
A^wd0*C^sno8:179235:0.000982
A^wd1:103744:-0.043264
A^wd1*B^ino11:231590:-0.006507
A^wd1*B^ino110:184155:-0.089367
A^wd1*B^ino16:5505:-0.050301
A^wd1*B^ino19:42247:0.005373
A^wd1*B^ino23:83927:-0.006175
A^wd1*B^ino24:168104:0.122065
A^wd1*B^ino26:218597:0.011785
A^wd1*B^ino27:111242:-0.108870
A^wd1*B^ino31:28996:-0.020425
A^wd1*B^ino36:29889:-0.029404
A^wd1*B^ino37:203833:-0.068126
A^wd1*B^ino38:130660:-0.009349
A^wd1*B^ino41:27740:-0.054958
A^wd1*B^ino44:220537:-0.053005
A^wd1*B^ino45:104279:-0.058479
A^wd1*B^ino46:181955:0.002861
A^wd1*B^ino47:243651:0.084308
A^wd1*B^ino50:150853:0.009927
A^wd1*B^ino54:115407:0.047122
A^wd1*B^ino6:89321:-0.047879
A^wd1*B^ino62:164289:0.043110
A^wd1*B^ino63:72590:-0.055218
A^wd1*B^ino68:82546:-0.047066
A^wd1*B^ino69:60027:0.018600
A^wd1*B^ino76:134365:0.010342
A^wd1*B^ino8:159448:0.030400
A^wd1*B^ino83:163850:-0.094448
A^wd1*B^ino84:227930:0.022461
A^wd1*B^ino85:77307:0.042091
A^wd1*B^ino86:208652:0.000539
A^wd1*B^ino88:249751:0.046767
A^wd1*B^ino93:159215:-0.038858
A^wd1*B^ino98:222724:-0.023068
A^wd1*C^sno1:189931:-0.017770
A^wd1*C^sno12:155929:-0.019889
A^wd1*C^sno13:176116:0.000741
A^wd1*C^sno14:247888:0.014621
A^wd1*C^sno15:196489:-0.007334
A^wd1*C^sno16:83213:-0.011303
A^wd1*C^sno18:133557:0.014217
A^wd1*C^sno21:152914:0.001642
A^wd1*C^sno29:17792:0.005525
A^wd1*C^sno31:176614:-0.016713
A^wd1*C^sno33:45677:-0.015751
A^wd1*C^sno36:219379:0.047519
A^wd1*C^sno39:208000:0.041910
A^wd1*C^sno4:77843:-0.005126
A^wd1*C^sno40:7898:-0.016757
A^wd1*C^sno41:184521:-0.010120
A^wd1*C^sno42:135863:0.003411
A^wd1*C^sno5:241010:-0.006740
A^wd1*C^sno6:43717:0.073164
A^wd1*C^sno9:245529:-0.001457
A^wd2:172399:-0.053310
A^wd2*B^ino102:62566:0.061758
A^wd2*B^ino104:2890:0.030739
A^wd2*B^ino106:32920:0.034745
A^wd2*B^ino107:1606:-0.161825
A^wd2*B^ino108:204982:-0.116094
A^wd2*B^ino109:16782:-0.123253
A^wd2*B^ino11:154331:0.009505
A^wd2*B^ino111:210874:-0.111054
A^wd2*B^ino13:84439:0.029782
A^wd2*B^ino16:116732:-0.070903
A^wd2*B^ino21:12248:-0.080497
A^wd2*B^ino23:38314:-0.025846
A^wd2*B^ino24:213717:-0.150610
A^wd2*B^ino25:239679:-0.086890
A^wd2*B^ino27:24823:0.024289
A^wd2*B^ino28:208639:-0.039611
A^wd2*B^ino29:90375:-0.016261
A^wd2*B^ino36:108220:-0.027058
A^wd2*B^ino37:183876:-0.097372
A^wd2*B^ino41:114209:-0.046627
A^wd2*B^ino42:10926:-0.036093
A^wd2*B^ino44:167684:-0.066600
A^wd2*B^ino45:17706:-0.064636
A^wd2*B^ino47:157118:-0.166225
A^wd2*B^ino49:171197:0.041338
A^wd2*B^ino5:48685:-0.083061
A^wd2*B^ino50:237368:0.091335
A^wd2*B^ino51:84942:0.011470
A^wd2*B^ino64:113024:-0.023842
A^wd2*B^ino66:45341:-0.040136
A^wd2*B^ino67:167667:-0.027456
A^wd2*B^ino68:36879:-0.068879
A^wd2*B^ino69:79878:-0.042594
A^wd2*B^ino73:94631:0.016542
A^wd2*B^ino80:116258:0.044610
A^wd2*B^ino81:128219:-0.085090
A^wd2*B^ino83:217719:-0.029861
A^wd2*B^ino85:65414:0.039352
A^wd2*B^ino86:195953:0.035078
A^wd2*B^ino87:123697:-0.062372
A^wd2*B^ino88:138730:0.010438
A^wd2*B^ino9:111587:-0.064280
A^wd2*B^ino93:245650:0.007523
A^wd2*B^ino96:253465:0.026967
A^wd2*B^ino98:177273:0.014137
A^wd2*C^sno11:89401:-0.045816
A^wd2*C^sno15:208372:-0.012918
A^wd2*C^sno23:229299:-0.007405
A^wd2*C^sno26:73108:0.005716
A^wd2*C^sno27:88125:-0.005352
A^wd2*C^sno28:167902:0.008940
A^wd2*C^sno33:90128:-0.013347
A^wd2*C^sno34:124421:-0.005390
A^wd2*C^sno36:166542:0.017916
A^wd2*C^sno37:174205:-0.000321
A^wd2*C^sno40:117927:-0.050591
A^wd2*C^sno42:245962:0.007803
A^wd2*C^sno9:159076:-0.002691
A^wd3:131595:-0.045349
A^wd3*B^ino1:134998:-0.066543
A^wd3*B^ino102:123530:0.006880
A^wd3*B^ino104:73126:0.026605
A^wd3*B^ino105:90064:0.047859
A^wd3*B^ino106:104052:0.033724
A^wd3*B^ino12:174687:0.033299
A^wd3*B^ino16:53520:-0.055189
A^wd3*B^ino17:20072:-0.038417
A^wd3*B^ino23:99142:-0.096221
A^wd3*B^ino24:152633:-0.061616
A^wd3*B^ino25:179923:-0.010052
A^wd3*B^ino26:233844:-0.026224
A^wd3*B^ino27:95771:-0.078226
A^wd3*B^ino28:145427:-0.035682
A^wd3*B^ino34:19943:0.118500
A^wd3*B^ino36:45136:-0.057494
A^wd3*B^ino37:252072:-0.096058
A^wd3*B^ino41:43213:-0.079105
A^wd3*B^ino44:236008:-0.064976
A^wd3*B^ino45:86982:-0.132139
A^wd3*B^ino5:108737:-0.103169
A^wd3*B^ino50:166356:0.021044
A^wd3*B^ino51:23842:0.030921
A^wd3*B^ino54:67166:0.011108
A^wd3*B^ino58:20132:-0.005575
A^wd3*B^ino59:76077:0.018851
A^wd3*B^ino6:104568:-0.036631
A^wd3*B^ino65:49787:0.015501
A^wd3*B^ino66:108529:-0.036860
A^wd3*B^ino67:235551:-0.029807
A^wd3*B^ino68:100067:-0.064088
A^wd3*B^ino69:12010:-0.106515
A^wd3*B^ino71:189415:-0.004951
A^wd3*B^ino73:26443:0.004549
A^wd3*B^ino81:57911:-0.075558
A^wd3*B^ino83:148635:-0.085123
A^wd3*B^ino84:245451:0.034248
A^wd3*B^ino85:125290:0.045562
A^wd3*B^ino86:256925:0.047196
A^wd3*B^ino89:225795:0.017101
A^wd3*B^ino9:42255:-0.084361
A^wd3*B^ino93:174462:0.098072
A^wd3*B^ino96:182517:0.018602
A^wd3*B^ino97:194681:0.042786
A^wd3*C^sno11:19413:-0.017464
A^wd3*C^sno16:98716:-0.008203
A^wd3*C^sno2:157082:-0.007618
A^wd3*C^sno30:103964:0.013423
A^wd3*C^sno31:161143:-0.005627
A^wd3*C^sno33:30460:-0.009997
A^wd3*C^sno37:245393:-0.043479
A^wd3*C^sno39:256017:0.042353
A^wd3*C^sno40:55883:-0.047676
A^wd3*C^sno9:228232:-0.002560
A^wd4*B^ino104:21152:0.019542
A^wd4*B^ino105:4310:0.008421
A^wd4*B^ino106:55666:0.034005
A^wd4*B^ino110:214220:0.234199
A^wd4*B^ino12:255321:-0.016783
A^wd4*B^ino14:226025:0.049246
A^wd4*B^ino16:106006:0.015030
A^wd4*B^ino19:77456:0.009831
A^wd4*B^ino2:37866:-0.029360
A^wd4*B^ino21:30258:0.018756
A^wd4*B^ino23:52288:-0.044484
A^wd4*B^ino24:203583:0.122538
A^wd4*B^ino25:258517:0.041310
A^wd4*B^ino27:14621:-0.025888
A^wd4*B^ino28:227093:-0.022734
A^wd4*B^ino33:27602:0.022189
A^wd4*B^ino34:66273:0.009994
A^wd4*B^ino35:248282:-0.008124
A^wd4*B^ino39:162549:-0.034427
A^wd4*B^ino4:169948:0.019278
A^wd4*B^ino41:124875:-0.052217
A^wd4*B^ino43:183231:0.015197
A^wd4*B^ino44:186094:-0.016397
A^wd4*B^ino45:7360:-0.001354
A^wd4*B^ino46:216404:-0.028731
A^wd4*B^ino5:59335:-0.036950
A^wd4*B^ino50:247506:-0.001059
A^wd4*B^ino51:70180:0.006827
A^wd4*B^ino52:171440:-0.066713
A^wd4*B^ino61:98506:0.084493
A^wd4*B^ino70:162546:0.022208
A^wd4*B^ino73:75853:-0.001329
A^wd4*B^ino74:71370:-0.078617
A^wd4*B^ino77:247478:-0.052285
A^wd4*B^ino8:255311:-0.016815
A^wd4*B^ino81:109873:-0.044581
A^wd4*B^ino84:192973:0.022580
A^wd4*B^ino86:173211:0.022615
A^wd4*B^ino9:125449:-0.062182
A^wd4*B^ino93:255608:0.164288
A^wd4*B^ino97:243583:0.022037
A^wd4*C^sno1:224892:0.014500
A^wd4*C^sno15:226334:0.006381
A^wd4*C^sno17:250405:-0.033896
A^wd4*C^sno18:229922:-0.021359
A^wd4*C^sno19:129265:0.025358
A^wd4*C^sno23:206425:-0.055433
A^wd4*C^sno24:149274:0.055048
A^wd4*C^sno27:66007:-0.008779
A^wd4*C^sno28:185908:-0.100769
A^wd4*C^sno29:118295:-0.056747
A^wd4*C^sno30:55578:-0.008334
A^wd4*C^sno31:211569:0.017098
A^wd4*C^sno36:185188:-0.070291
A^wd4*C^sno40:103757:0.003106
A^wd4*C^sno41:219998:0.008720
A^wd4*C^sno42:235808:-0.063440
A^wd4*C^sno43:12167:0.019472
A^wd4*C^sno6:74066:-0.075267
A^wd4*C^sno9:144526:0.017530
A^wd5:238147:0.003668
A^wd5*B^ino10:176365:-0.026400
A^wd5*B^ino110:218082:0.278454
A^wd5*B^ino18:8295:0.006172
A^wd5*B^ino22:260718:-0.009035
A^wd5*B^ino24:199697:0.074216
A^wd5*B^ino25:255739:0.114159
A^wd5*B^ino3:2489:0.047481
A^wd5*B^ino31:126461:0.006875
A^wd5*B^ino40:138102:-0.118145
A^wd5*B^ino42:25706:0.100246
A^wd5*B^ino43:187537:0.082157
A^wd5*B^ino48:69377:0.056682
A^wd5*B^ino56:87382:0.014901
A^wd5*B^ino59:28933:-0.046016
A^wd5*B^ino69:95938:0.023511
A^wd5*B^ino72:257688:-0.040205
A^wd5*B^ino73:81763:-0.003765
A^wd5*B^ino79:59490:-0.107203
A^wd5*B^ino8:258657:-0.013146
A^wd5*B^ino80:100582:-0.042363
A^wd5*B^ino83:203955:0.015244
A^wd5*B^ino89:141867:-0.065997
A^wd5*C^sno1:227666:0.056939
A^wd5*C^sno11:70653:0.000899
A^wd5*C^sno12:261536:0.002174
A^wd5*C^sno13:209741:-0.055567
A^wd5*C^sno14:152809:0.038129
A^wd5*C^sno17:247051:-0.023240
A^wd5*C^sno18:234764:-0.013517
A^wd5*C^sno19:126943:0.033262
A^wd5*C^sno21:248299:-0.049762
A^wd5*C^sno22:203173:-0.022976
A^wd5*C^sno26:86864:-0.109724
A^wd5*C^sno28:180506:-0.070713
A^wd5*C^sno29:121145:-0.082098
A^wd5*C^sno3:191202:0.013538
A^wd5*C^sno30:52788:-0.014273
A^wd5*C^sno33:77524:-0.017372
A^wd5*C^sno34:108737:-0.103169
A^wd5*C^sno35:75271:0.082518
A^wd5*C^sno36:181322:-0.042200
A^wd5*C^sno4:44202:0.004881
A^wd5*C^sno42:232974:-0.032903
A^wd5*C^sno6:79484:-0.129632
A^wd6*B^ino1:98639:0.065600
A^wd6*B^ino102:158867:-0.080570
A^wd6*B^ino103:124985:0.186364
A^wd6*B^ino104:168895:-0.095681
A^wd6*B^ino106:137325:-0.062383
A^wd6*B^ino108:112707:0.168915
A^wd6*B^ino110:99795:-0.144126
A^wd6*B^ino111:110415:0.256171
A^wd6*B^ino12:74822:-0.027562
A^wd6*B^ino16:220937:0.044020
A^wd6*B^ino17:245873:0.125094
A^wd6*B^ino2:152309:0.039586
A^wd6*B^ino20:204406:-0.070696
A^wd6*B^ino21:177965:-0.081159
A^wd6*B^ino23:134495:0.181226
A^wd6*B^ino24:121376:-0.324341
A^wd6*B^ino27:194562:0.053270
A^wd6*B^ino33:174797:-0.009910
A^wd6*B^ino34:246782:-0.007870
A^wd6*B^ino36:212553:0.162333
A^wd6*B^ino37:22193:0.070498
A^wd6*B^ino38:177388:0.020693
A^wd6*B^ino41:206548:0.108888
A^wd6*B^ino43:2720:-0.018362
A^wd6*B^ino44:6129:0.004945
A^wd6*B^ino45:187871:0.086961
A^wd6*B^ino47:64843:-0.002374
A^wd6*B^ino5:141016:0.127944
A^wd6*B^ino50:67533:-0.040465
A^wd6*B^ino51:250683:-0.061079
A^wd6*B^ino53:6012:0.031490
A^wd6*B^ino55:72715:0.104919
A^wd6*B^ino60:5112:-0.005709
A^wd6*B^ino61:213461:-0.060415
A^wd6*B^ino64:205173:0.097174
A^wd6*B^ino66:141800:0.024102
A^wd6*B^ino67:5638:0.073801
A^wd6*B^ino68:133370:0.035017
A^wd6*B^ino76:83541:-0.014705
A^wd6*B^ino77:67497:0.051230
A^wd6*B^ino78:141104:0.044594
A^wd6*B^ino8:74832:0.217538
A^wd6*B^ino84:12498:-0.008864
A^wd6*B^ino86:25988:-0.019691
A^wd6*B^ino9:207638:0.189039
A^wd6*B^ino93:75623:-0.104908
A^wd6*B^ino95:133061:0.087745
A^wd6*B^ino96:83692:-0.005116
A^wd6*C^sno14:33496:-0.000641
A^wd6*C^sno27:245960:0.028923
A^wd6*C^sno33:260325:0.038720
A^wd6*C^sno34:229104:-0.041132
A^wd6*C^sno37:12424:0.009884
A^wd6*C^sno39:26120:-0.290583
A^wd6*C^sno45:137833:-0.013565
A^wd6*C^sno7:52391:0.003455
A^we:23547:0.080549
A^we*B^ino100:203891:-0.016053
A^we*B^ino105:42144:-0.009306
A^we*B^ino106:27908:-0.029426
A^we*B^ino111:252454:0.093406
A^we*B^ino16:76384:0.124658
A^we*B^ino23:30774:0.081395
A^we*B^ino28:246627:0.072093
A^we*B^ino33:57252:-0.022699
A^we*B^ino36:84768:0.035025
A^we*B^ino37:140248:0.085095
A^we*B^ino40:178222:-0.004283
A^we*B^ino41:86973:0.038968
A^we*B^ino42:50994:0.031394
A^we*B^ino44:156312:0.025786
A^we*B^ino45:43190:0.068543
A^we*B^ino48:109657:0.023329
A^we*B^ino5:21425:0.089961
A^we*B^ino51:108114:-0.009345
A^we*B^ino52:141766:0.015192
A^we*B^ino54:64814:-0.126120
A^we*B^ino58:112084:0.063134
A^we*B^ino64:87068:0.165508
A^we*B^ino66:23681:0.029378
A^we*B^ino67:156527:0.130816
A^we*B^ino68:32147:0.076346
A^we*B^ino69:120218:0.007909
A^we*B^ino75:243389:0.011779
A^we*B^ino81:72007:0.069567
A^we*B^ino83:245739:0.176877
A^we*B^ino85:4634:-0.048846
A^we*B^ino86:135405:-0.046436
A^we*B^ino89:166259:-0.031695
A^we*B^ino9:89727:0.053424
A^we*B^ino92:46128:-0.007245
A^we*C^sno1:252426:0.028364
A^we*C^sno11:110757:0.075171
A^we*C^sno12:220920:0.021394
A^we*C^sno15:245864:0.051570
A^we*C^sno17:222803:-0.027760
A^we*C^sno2:237290:0.001788
A^we*C^sno27:112033:0.021035
A^we*C^sno28:156226:-0.028083
A^we*C^sno29:96865:-0.007897
A^we*C^sno30:28012:-0.003501
A^we*C^sno31:232967:0.007849
A^we*C^sno32:109908:0.002348
A^we*C^sno34:68505:0.023616
A^we*C^sno37:148961:0.071308
A^we*C^sno39:136033:-0.052904
A^we*C^sno40:74043:0.110426
A^we*C^sno41:257832:0.000146
A^we*C^sno42:208214:-0.107693
A^we*C^sno6:103716:-0.066615
B^ino1*M^day1:221532:-0.194152
B^ino1*M^day18:208732:0.075092
B^ino1*M^day21:78115:0.008904
B^ino1*M^day26:218190:-0.115938
B^ino1*M^day3:114971:-0.026556
B^ino1*M^day5:112487:-0.197755
B^ino1*M^day8:8445:0.031368
B^ino1*M^month2:156538:-0.019952
B^ino1*M^month3:50476:0.042811
B^ino10*K^BlackFriday:246541:-0.049769
B^ino10*K^BlackFriday1:153016:-0.143138
B^ino10*K^BlackFriday2:65231:-0.220548
B^ino10*K^BlackFridayM2:186798:0.740358
B^ino10*K^BlackFridayM3:225944:-0.195677
B^ino10*K^ThanksgivingDay:101557:0.484802
B^ino10*M^day1:239525:0.149652
B^ino10*M^day10:260935:-0.028471
B^ino10*M^day21:128986:0.082663
B^ino10*M^day27:200720:0.001600
B^ino10*M^day30:59120:-0.002580
B^ino10*M^day8:58884:-0.010373
B^ino10*M^month6:160870:-0.032226
B^ino100*K^BlackFriday2:129573:-0.435876
B^ino100*K^BlackFriday3:35618:0.623047
B^ino100*K^BlackFridayM3:161394:-0.271310
B^ino100*M^day21:62256:-0.023371
B^ino100*M^day27:136442:-0.029638
B^ino100*M^day28:104197:-0.043692
B^ino100*M^month3:67391:0.003717
B^ino100*M^month5:222265:0.068808
B^ino100*M^month7:196312:-0.013567
B^ino101*K^BlackFriday2:29396:-0.290852
B^ino101*K^BlackFriday3:66515:-0.184205
B^ino101*K^BlackFridayM2:153013:-0.116939
B^ino101*K^BlackFridayM3:261763:-0.187557
B^ino101*K^ThanksgivingDay:65710:0.291686
B^ino101*M^day14:16033:-0.008963
B^ino101*M^day2:207089:-0.015944
B^ino101*M^day27:236555:-0.009726
B^ino101*M^day29:225476:-0.007754
B^ino101*M^day6:164883:-0.093721
B^ino101*M^day9:55548:0.107498
B^ino101*M^month1:115420:-0.041065
B^ino101*M^month3:36814:0.005530
B^ino101*M^month6:194685:-0.026278
B^ino102:54747:0.000727
B^ino102*K^Else:141987:0.000727
B^ino102*M^day1:193944:-0.065669
B^ino102*M^day13:94826:-0.021786
B^ino102*M^day15:17801:-0.022861
B^ino102*M^day16:95186:-0.014834
B^ino102*M^day18:179096:-0.066377
B^ino102*M^day19:112457:-0.023121
B^ino102*M^day2:194263:-0.072837
B^ino102*M^day20:164504:-0.016810
B^ino102*M^day22:187229:-0.030689
B^ino102*M^day23:207027:-0.023857
B^ino102*M^day24:234038:-0.020052
B^ino102*M^day27:148013:0.011780
B^ino102*M^day3:21983:-0.042747
B^ino102*M^day4:88231:-0.052836
B^ino102*M^day8:111673:0.027853
B^ino102*M^day9:67290:-0.031209
B^ino102*M^month10:1863:0.009631
B^ino102*M^month11:2644:-0.013645
B^ino102*M^month12:135377:-0.007671
B^ino102*M^month3:86504:0.002925
B^ino103*K^BlackFriday:197138:-0.286995
B^ino103*K^BlackFriday1:169127:-0.033514
B^ino103*K^BlackFriday3:85719:-0.067512
B^ino103*K^BlackFridayM2:137393:0.343580
B^ino103*K^BlackFridayM3:242567:-0.155123
B^ino103*K^ThanksgivingDay:85418:0.838249
B^ino103*M^day1:222906:0.014358
B^ino103*M^day11:256855:-0.020003
B^ino103*M^day2:222709:-0.037868
B^ino103*M^day24:131348:0.029480
B^ino103*M^day28:21232:0.025653
B^ino103*M^day29:212416:-0.090318
B^ino103*M^day7:43328:-0.057395
B^ino103*M^day8:10011:-0.029159
B^ino103*M^month11:104822:0.028264
B^ino103*M^month12:230387:-0.079052
B^ino103*M^month9:235818:-0.028667
B^ino104*K^BlackFriday3:252129:-0.043632
B^ino104*K^BlackFridayM2:36487:-0.077662
B^ino104*K^BlackFridayM3:75185:-0.040010
B^ino104*K^ThanksgivingDay:252828:0.189044
B^ino104*M^day1:127116:-0.036300
B^ino104*M^day11:97633:-0.002089
B^ino104*M^day14:189843:0.028190
B^ino104*M^day2:127939:-0.002695
B^ino104*M^day20:100236:0.006736
B^ino104*M^day25:240357:0.017353
B^ino104*M^day31:168358:-0.039020
B^ino104*M^day9:132046:-0.046278
B^ino104*M^month5:14330:0.003086
B^ino104*M^month6:9039:-0.004384
B^ino105*K^BlackFriday1:205655:-0.091871
B^ino105*K^BlackFriday2:100384:-0.000126
B^ino105*K^BlackFriday3:63783:-0.134632
B^ino105*K^BlackFridayM2:241473:-0.029353
B^ino105*K^ThanksgivingDay:64090:0.225450
B^ino105*M^day1:184650:-0.003327
B^ino105*M^day15:24923:0.025501
B^ino105*M^day18:171850:-0.028206
B^ino105*M^day20:173642:-0.016485
B^ino105*M^day22:196495:0.110121
B^ino105*M^day23:199777:-0.009167
B^ino105*M^day29:166448:0.033409
B^ino105*M^day30:102431:0.047227
B^ino105*M^day31:110688:-0.009016
B^ino105*M^day5:1905:-0.009314
B^ino105*M^month1:14376:-0.018715
B^ino105*M^month2:250732:0.002508
B^ino105*M^month5:202300:0.009650
B^ino105*M^month9:143066:0.025009
B^ino106*K^BlackFriday:236494:0.134319
B^ino106*K^BlackFridayM3:207451:0.291780
B^ino106*K^ThanksgivingDay:119926:0.166817
B^ino106*M^day23:139853:-0.012996
B^ino106*M^day25:107791:-0.005276
B^ino106*M^day3:89889:-0.015918
B^ino106*M^day5:76125:-0.053392
B^ino106*M^day8:48839:-0.030634
B^ino106*M^month12:203311:-0.032035
B^ino106*M^month3:23318:-0.046404
B^ino107*K^BlackFriday:50896:0.138255
B^ino107*K^BlackFriday2:260882:0.412908
B^ino107*K^BlackFriday3:166421:0.462166
B^ino107*K^BlackFridayM3:30533:0.319698
B^ino107*K^ThanksgivingDay:166248:0.253482
B^ino107*M^day13:206218:-0.159721
B^ino107*M^day17:92235:0.060707
B^ino107*M^day19:254121:-0.056693
B^ino107*M^day20:54648:-0.015122
B^ino107*M^day24:116182:0.287054
B^ino107*M^day26:38762:-0.090348
B^ino107*M^day28:235058:0.089103
B^ino107*M^day29:63746:0.003375
B^ino107*M^day31:246610:0.167814
B^ino107*M^day4:200519:0.089319
B^ino107*M^day6:69077:0.091656
B^ino107*M^month5:91406:0.106462
B^ino108*K^BlackFridayM3:9013:-0.148210
B^ino108*K^ThanksgivingDay:187672:-0.319190
B^ino108*M^day1:62984:0.110666
B^ino108*M^day14:254743:-0.005005
B^ino108*M^day20:33032:-0.185300
B^ino108*M^day21:173687:0.001522
B^ino108*M^day24:102822:0.187393
B^ino108*M^day25:175201:0.034872
B^ino108*M^day26:49946:0.024484
B^ino108*M^day29:44402:-0.038618
B^ino108*M^day30:243549:-0.152338
B^ino108*M^day8:243625:-0.184730
B^ino108*M^month9:2456:-0.081851
B^ino109*K^BlackFriday2:162682:-0.123258
B^ino109*K^BlackFriday3:199293:0.292440
B^ino109*K^BlackFridayM2:23579:0.183961
B^ino109*K^BlackFridayM3:128813:0.044636
B^ino109*K^ThanksgivingDay:198912:0.340500
B^ino109*M^day14:145167:0.067997
B^ino109*M^day15:233985:0.082075
B^ino109*M^day27:103845:0.092434
B^ino109*M^day29:96618:0.024952
B^ino109*M^day30:156485:-0.021584
B^ino109*M^day8:156593:-0.090144
B^ino11*K^BlackFriday2:84641:-0.019508
B^ino11*K^BlackFriday3:15270:-0.118353
B^ino11*K^BlackFridayM2:224704:-0.129773
B^ino11*K^BlackFridayM3:182006:0.206708
B^ino11*K^ThanksgivingDay:14555:0.240106
B^ino11*M^day11:171558:0.058369
B^ino11*M^day17:252408:-0.179419
B^ino11*M^day18:155083:-0.067639
B^ino11*M^day23:249568:-0.100430
B^ino11*M^day24:226405:0.035092
B^ino11*M^day27:173182:-0.026553
B^ino11*M^day4:114420:0.024825
B^ino11*M^month3:112571:-0.009667
B^ino11*M^month9:191579:0.012919
B^ino11*M^year2014:195022:-0.001902
B^ino110*M^day14:77639:0.046596
B^ino110*M^day15:35401:-0.313887
B^ino110*M^day17:258155:-0.128194
B^ino110*M^day23:255859:-0.227161
B^ino110*M^day24:220662:0.097915
B^ino110*M^day3:39455:0.059039
B^ino110*M^day4:104295:0.127833
B^ino110*M^month9:181704:-0.151900
B^ino111*M^day1:130908:-0.401800
B^ino111*M^day12:255261:0.063960
B^ino111*M^day13:161966:0.068267
B^ino111*M^day14:191043:0.340782
B^ino111*M^day15:216909:-0.077525
B^ino111*M^day16:162070:0.120536
B^ino111*M^day26:117326:0.095993
B^ino111*M^day29:107558:0.035011
B^ino111*M^day5:207207:0.122793
B^ino111*M^day6:20721:-0.464923
B^ino111*M^day7:143526:0.465441
B^ino111*M^day9:134174:-0.009429
B^ino111*M^month7:107211:-0.375069
B^ino12*K^BlackFriday1:236878:0.426869
B^ino12*K^BlackFriday2:79417:-0.125099
B^ino12*K^BlackFridayM2:201048:0.511882
B^ino12*K^BlackFridayM3:178798:-0.209433
B^ino12*K^ThanksgivingDay:17475:0.009271
B^ino12*M^day14:96844:-0.053255
B^ino12*M^day20:137299:-0.008480
B^ino12*M^day21:16172:0.018737
B^ino12*M^day23:242296:0.003246
B^ino12*M^day24:198909:0.048583
B^ino12*M^day25:13626:0.000230
B^ino12*M^day29:144425:-0.003612
B^ino12*M^day4:115308:-0.001302
B^ino12*M^day6:246014:0.027245
B^ino12*M^day7:106665:0.021291
B^ino12*M^day9:105489:-0.044016
B^ino12*M^month1:34353:-0.026488
B^ino12*M^month11:37023:0.018415
B^ino12*M^month8:6783:-0.015452
B^ino13*M^day11:98666:0.013987
B^ino13*M^day13:166773:0.076368
B^ino13*M^day14:137624:-0.073013
B^ino13*M^day15:244886:0.084839
B^ino13*M^day2:69576:-0.042928
B^ino13*M^day21:220408:-0.061165
B^ino13*M^day25:218862:0.067521
B^ino13*M^day30:150994:-0.101512
B^ino13*M^month10:261720:-0.088369
B^ino13*M^month2:3745:-0.397323
B^ino13*M^month3:174327:0.017057
B^ino13*M^month8:227755:0.050930
B^ino14*M^day22:234886:-0.099460
B^ino14*M^day23:157288:-0.039735
B^ino14*M^day27:199926:-0.121567
B^ino14*M^day29:254009:-0.041284
B^ino14*M^month3:7987:0.028608
B^ino14*M^month5:162869:0.054288
B^ino14*M^month8:118383:0.060774
B^ino15*K^BlackFriday1:246536:-0.360087
B^ino15*K^BlackFridayM2:216862:-0.076698
B^ino15*K^ThanksgivingDay:6661:-0.189724
B^ino15*M^day12:11092:0.039460
B^ino15*M^day15:33028:-0.060960
B^ino15*M^day17:260902:-0.085106
B^ino15*M^day18:163605:0.023028
B^ino15*M^day19:95172:-0.065485
B^ino15*M^day20:149013:-0.046447
B^ino15*M^day23:257086:-0.001429
B^ino15*M^day26:132103:-0.147459
B^ino15*M^day27:165536:-0.037519
B^ino15*M^day6:237240:0.062347
B^ino15*M^day9:115287:0.164976
B^ino15*M^month4:48858:-0.076202
B^ino15*M^month8:17465:-0.142645
B^ino16*K^BlackFriday:216738:-0.210786
B^ino16*K^BlackFriday1:186391:-0.025219
B^ino16*K^ThanksgivingDay:65818:-0.793074
B^ino16*M^day1:207370:0.071015
B^ino16*M^day10:227048:0.103681
B^ino16*M^day11:239591:0.138424
B^ino16*M^day12:77899:0.070762
B^ino16*M^day13:44536:0.094459
B^ino16*M^day14:16149:0.083077
B^ino16*M^day15:104987:0.007484
B^ino16*M^day17:188473:-0.076372
B^ino16*M^day18:222218:-0.101560
B^ino16*M^day19:26843:-0.093498
B^ino16*M^day2:207173:0.150691
B^ino16*M^day20:220426:-0.125226
B^ino16*M^day21:96885:-0.158650
B^ino16*M^day22:197839:-0.170957
B^ino16*M^day23:194337:-0.183350
B^ino16*M^day24:150948:-0.186575
B^ino16*M^day25:94307:-0.162477
B^ino16*M^day26:204568:-0.147505
B^ino16*M^day27:236991:-0.207753
B^ino16*M^day28:7744:-0.172336
B^ino16*M^day29:225648:-0.192797
B^ino16*M^day3:100941:0.132331
B^ino16*M^day30:27487:-0.201538
B^ino16*M^day31:19232:-0.173833
B^ino16*M^day4:34613:0.095626
B^ino16*M^day5:130097:0.290434
B^ino16*M^day6:165287:0.194448
B^ino16*M^day7:58864:0.095558
B^ino16*M^day8:27563:0.156189
B^ino16*M^day9:55624:0.105952
B^ino16*M^month11:120262:-0.058805
B^ino16*M^month3:36474:-0.011572
B^ino16*M^month4:107973:-0.005281
B^ino16*M^month5:191868:-0.019819
B^ino16*M^month6:195017:0.006300
B^ino16*M^month7:227229:-0.011424
B^ino16*M^month8:89894:0.016818
B^ino16*M^year2014:245775:0.002305
B^ino17*K^BlackFriday1:161023:-0.393716
B^ino17*K^BlackFriday2:57224:-0.113669
B^ino17*K^BlackFriday3:110223:0.186863
B^ino17*K^BlackFridayM2:194793:-0.263656
B^ino17*M^day1:231138:-0.060693
B^ino17*M^day11:199439:-0.000581
B^ino17*M^day12:105635:0.061811
B^ino17*M^day15:79603:-0.008623
B^ino17*M^day25:121995:0.026402
B^ino17*M^day30:51127:0.031298
B^ino17*M^day5:86233:-0.083452
B^ino17*M^day6:141647:-0.033340
B^ino17*M^month7:252789:-0.013112
B^ino18*K^BlackFriday:178891:-0.181594
B^ino18*K^BlackFriday1:207998:-0.228637
B^ino18*K^BlackFriday2:100105:0.386116
B^ino18*K^BlackFriday3:62990:-0.199369
B^ino18*K^BlackFridayM2:237672:0.210700
B^ino18*K^BlackFridayM3:133982:-0.243500
B^ino18*K^Else:131416:0.007854
B^ino18*K^ThanksgivingDay:62835:0.404488
B^ino18*M^day11:152462:-0.004853
B^ino18*M^day13:88465:-0.009778
B^ino18*M^day16:88105:0.140698
B^ino18*M^day20:174435:-0.026036
B^ino18*M^day26:191345:0.019829
B^ino18*M^day27:158166:-0.052691
B^ino18*M^day30:106294:0.008619
B^ino18*M^day7:70041:0.064002
B^ino18*M^day8:106434:-0.070477
B^ino19*K^BlackFriday:110004:0.506798
B^ino19*K^BlackFriday1:15105:0.267013
B^ino19*K^BlackFriday2:168054:-0.318430
B^ino19*K^BlackFriday3:254321:0.010307
B^ino19*K^BlackFridayM2:46871:-0.172072
B^ino19*K^BlackFridayM3:72737:0.045284
B^ino19*K^ThanksgivingDay:254476:0.028091
B^ino19*M^day14:187395:0.021325
B^ino19*M^day17:815:0.046722
B^ino19*M^day19:166861:0.029108
B^ino19*M^day24:44722:0.118320
B^ino19*M^day26:130062:0.037123
B^ino19*M^day28:195926:-0.089897
B^ino19*M^day8:166077:-0.028282
B^ino2*M^day2:84881:0.055931
B^ino2*M^day21:202913:-0.000696
B^ino2*M^day22:91675:0.012136
B^ino2*M^day30:133515:0.000517
B^ino2*M^day8:133503:0.024294
B^ino2*M^day9:179100:-0.053917
B^ino2*M^month2:19192:-0.041122
B^ino2*M^month5:36776:-0.018767
B^ino20*K^BlackFriday1:124638:-0.193182
B^ino20*K^BlackFriday2:216489:-0.622130
B^ino20*K^ThanksgivingDay:147411:0.407904
B^ino20*M^day10:18465:-0.011249
B^ino20*M^day20:25539:0.033823
B^ino20*M^day22:14854:-0.072898
B^ino20*M^day23:117224:0.029756
B^ino20*M^day28:204937:0.105586
B^ino20*M^day7:252729:-0.112331
B^ino20*M^month5:119733:0.023869
B^ino21*K^ThanksgivingDay:184758:0.319669
B^ino21*M^day12:188647:0.036345
B^ino21*M^day14:257977:0.023196
B^ino21*M^day2:63977:0.041913
B^ino21*M^day21:174809:0.040058
B^ino21*M^day29:41436:0.009788
B^ino21*M^day7:210268:-0.013778
B^ino21*M^month8:167818:0.001403
B^ino22*M^day10:114062:0.256516
B^ino22*M^day12:260909:-0.006707
B^ino22*M^day13:157342:-0.235160
B^ino22*M^day14:193651:-0.245051
B^ino22*M^day16:157478:-0.201331
B^ino22*M^day22:118697:0.001609
B^ino22*M^day23:15431:0.126300
B^ino22*M^day24:34498:0.546381
B^ino22*M^day29:113174:0.067496
B^ino22*M^day31:163910:-0.124063
B^ino22*M^day5:210775:-0.138658
B^ino22*M^day8:172237:-0.193584
B^ino22*M^day9:135726:0.029454
B^ino22*M^month4:224931:-0.107210
B^ino23*K^BlackFriday1:8305:0.001427
B^ino23*K^BlackFridayM2:44135:0.038901
B^ino23*K^BlackFridayM3:67409:0.084578
B^ino23*M^day1:119404:0.009162
B^ino23*M^day14:182131:-0.019532
B^ino23*M^day16:152614:-0.067624
B^ino23*M^day18:105580:-0.060459
B^ino23*M^day23:3911:0.009213
B^ino23*M^day24:46530:-0.004267
B^ino23*M^day25:231429:0.014338
B^ino23*M^day31:176966:-0.004783
B^ino23*M^day8:168909:-0.059717
B^ino23*M^month2:53322:-0.026567
B^ino23*M^month5:5402:-0.003310
B^ino24*K^BlackFriday:215625:-0.365446
B^ino24*K^BlackFriday2:30603:-0.361140
B^ino24*K^BlackFriday3:67212:0.447168
B^ino24*K^BlackFridayM2:151786:-0.428462
B^ino24*K^BlackFridayM3:261084:-0.576922
B^ino24*K^ThanksgivingDay:67057:-0.095649
B^ino24*M^day10:225795:0.017101
B^ino24*M^day15:106224:0.139563
B^ino24*M^day18:221409:0.093838
B^ino24*M^day20:219617:0.227223
B^ino24*M^day21:97950:0.042270
B^ino24*M^day22:196644:0.260810
B^ino24*M^day23:193482:0.003815
B^ino24*M^day29:226715:-0.004111
B^ino24*M^day31:20427:-0.093526
B^ino24*M^day4:33758:0.263588
B^ino24*M^month1:116611:-0.148150
B^ino24*M^month12:248744:0.006198
B^ino24*M^month5:190871:-0.024728
B^ino24*M^month6:195874:-0.041200
B^ino25*K^BlackFriday3:69010:0.247690
B^ino25*K^BlackFridayM2:154612:0.459805
B^ino25*K^BlackFridayM3:258242:0.250977
B^ino25*K^ThanksgivingDay:69359:-1.554934
B^ino25*M^day14:12512:0.086845
B^ino25*M^day17:192460:0.004720
B^ino25*M^day18:224255:0.020454
B^ino25*M^day24:148049:-0.033825
B^ino25*M^month10:120608:-0.016585
B^ino25*M^month7:227432:-0.005370
B^ino25*M^month8:86227:0.040419
B^ino26*K^BlackFriday:113358:0.191769
B^ino26*K^BlackFriday1:11387:0.193852
B^ino26*K^BlackFriday2:165644:0.445096
B^ino26*K^BlackFridayM2:41069:0.149146
B^ino26*K^BlackFridayM3:68443:0.284048
B^ino26*K^ThanksgivingDay:259446:-0.684753
B^ino26*M^day15:224887:-0.092649
B^ino26*M^day16:153644:-0.017980
B^ino26*M^day21:232985:0.097225
B^ino26*M^day23:845:0.045091
B^ino26*M^day25:230415:0.091814
B^ino26*M^day8:171975:-0.002752
B^ino26*M^month11:205226:-0.024222
B^ino26*M^month9:74230:0.044871
B^ino27*K^BlackFriday:61839:0.176265
B^ino27*K^BlackFriday2:248909:0.203020
B^ino27*K^BlackFriday3:179530:0.369445
B^ino27*M^day12:167782:0.021273
B^ino27*M^day15:140598:0.055714
B^ino27*M^day17:89876:-0.057650
B^ino27*M^day23:83980:-0.111170
B^ino27*M^day24:127625:0.002662
B^ino27*M^day25:184142:0.018836
B^ino27*M^day8:251014:0.000158
B^ino28*K^BlackFriday:209431:0.231151
B^ino28*K^BlackFriday1:173218:0.305375
B^ino28*K^BlackFriday2:4053:-0.035357
B^ino28*K^BlackFridayM2:141492:0.084250
B^ino28*K^BlackFridayM3:230274:0.400804
B^ino28*K^ThanksgivingDay:97711:0.083804
B^ino28*M^day1:218815:0.038032
B^ino28*M^day12:85246:-0.135121
B^ino28*M^day16:53493:0.017723
B^ino28*M^day21:67264:0.015267
B^ino28*M^day22:227450:0.022724
B^ino28*M^day29:200133:-0.002198
B^ino28*M^month10:107616:-0.013923
B^ino28*M^month12:242678:0.037925
B^ino28*M^month5:168393:-0.057126
B^ino29*K^BlackFriday:184895:0.660317
B^ino29*K^BlackFriday1:214154:0.256617
B^ino29*K^BlackFriday3:40698:0.466927
B^ino29*K^BlackFridayM2:247964:0.080817
B^ino29*K^BlackFridayM3:156586:0.073192
B^ino29*K^ThanksgivingDay:40327:-0.020775
B^ino29*M^day15:1670:-0.025494
B^ino29*M^day2:177624:0.050053
B^ino29*M^day27:131362:0.002299
B^ino29*M^day30:128962:-0.154483
B^ino29*M^day31:120765:0.056180
B^ino29*M^month12:152542:-0.011084
B^ino29*M^month4:14680:0.015561
B^ino3*M^day10:249595:-0.095248
B^ino3*M^day16:5203:-0.147161
B^ino3*M^day20:255257:0.006111
B^ino3*M^day22:244956:-0.068636
B^ino3*M^day31:62259:-0.036179
B^ino3*M^day9:24923:0.025501
B^ino30*K^BlackFriday2:54025:-0.307315
B^ino30*M^day15:80498:-0.106380
B^ino30*M^day20:261475:0.089294
B^ino30*M^day22:238758:0.045608
B^ino30*M^month9:226803:0.027555
B^ino31*K^BlackFriday:148285:-0.085439
B^ino31*K^BlackFriday2:98047:-0.291632
B^ino31*K^BlackFriday3:4088:-0.256280
B^ino31*K^BlackFridayM2:219550:-0.282199
B^ino31*K^BlackFridayM3:193192:-0.246769
B^ino31*K^ThanksgivingDay:3205:0.132067
B^ino31*M^day12:15828:-0.019099
B^ino31*M^day19:91460:0.000215
B^ino31*M^day25:32252:-0.019759
B^ino31*M^day31:83647:-0.008372
B^ino31*M^day4:101034:0.020238
B^ino31*M^day7:125039:0.109918
B^ino31*M^month2:206259:-0.001564
B^ino31*M^month7:162306:-0.044204
B^ino32*K^BlackFriday2:133468:-0.193930
B^ino32*K^BlackFridayM2:11837:-0.238197
B^ino32*K^BlackFridayM3:99595:-0.279532
B^ino32*K^ThanksgivingDay:228134:0.187699
B^ino32*M^day1:86070:0.032042
B^ino32*M^day17:39429:-0.069127
B^ino32*M^day29:68428:-0.107378
B^ino33*K^BlackFriday:36014:-0.086046
B^ino33*K^BlackFriday1:72219:-0.249510
B^ino33*K^BlackFriday2:242028:-0.276538
B^ino33*K^BlackFriday3:180331:-0.299379
B^ino33*K^BlackFridayM3:15675:-0.237706
B^ino33*M^day14:261401:-0.118186
B^ino33*M^day22:50883:-0.059481
B^ino33*M^day26:56596:0.184463
B^ino33*M^day28:253004:0.056614
B^ino33*M^day29:45948:-0.012478
B^ino33*M^month2:125472:0.025545
B^ino34*K^BlackFriday:137843:0.123220
B^ino34*K^BlackFriday3:22198:-0.246645
B^ino34*K^ThanksgivingDay:21963:0.100518
B^ino34*M^day10:139833:-0.103523
B^ino34*M^day11:193334:-0.154904
B^ino34*M^day19:80906:0.052186
B^ino34*M^day24:203125:-0.040025
B^ino34*M^day25:9394:-0.025202
B^ino34*M^day3:56988:-0.030672
B^ino34*M^day9:101785:-0.115280
B^ino34*M^month12:170898:0.016652
B^ino34*M^year2013:205887:0.001733
B^ino35*K^BlackFriday:177670:0.003856
B^ino35*K^BlackFriday3:64195:-0.117677
B^ino35*K^ThanksgivingDay:63934:0.188547
B^ino35*M^day14:116657:0.048313
B^ino35*M^day22:195691:0.039013
B^ino35*M^day27:156955:-0.111561
B^ino35*M^day28:124644:-0.121061
B^ino35*M^day29:166356:0.021044
B^ino35*M^day30:103419:-0.052909
B^ino35*M^month10:8305:0.001427
B^ino35*M^month4:23905:-0.001727
B^ino35*M^month5:202200:0.036816
B^ino36*K^BlackFriday2:167328:0.012795
B^ino36*K^BlackFriday3:261287:0.203129
B^ino36*M^day1:120010:0.035812
B^ino36*M^day10:100392:-0.016419
B^ino36*M^day11:88359:-0.028263
B^ino36*M^day13:152376:-0.013876
B^ino36*M^day15:222427:-0.094801
B^ino36*M^day17:7929:-0.030426
B^ino36*M^day2:120709:0.021344
B^ino36*M^day28:188544:0.018539
B^ino36*M^day29:102320:0.030907
B^ino36*M^day9:141192:-0.022947
B^ino36*M^month2:55020:-0.021448
B^ino36*M^month3:159930:0.004948
B^ino37*K^BlackFriday1:25791:-0.018904
B^ino37*K^BlackFridayM2:59561:0.291733
B^ino37*K^BlackFridayM3:82847:0.177263
B^ino37*K^ThanksgivingDay:245170:-0.171180
B^ino37*M^day1:104098:0.087085
B^ino37*M^day10:117312:0.005635
B^ino37*M^day11:72527:0.023611
B^ino37*M^day12:232675:0.091038
B^ino37*M^day17:23697:-0.035097
B^ino37*M^day19:185459:-0.001769
B^ino37*M^day2:103917:0.026838
B^ino37*M^day20:123298:-0.059099
B^ino37*M^day21:247517:-0.051050
B^ino37*M^day22:112743:-0.013832
B^ino37*M^day23:19337:-0.047801
B^ino37*M^day25:249035:-0.003555
B^ino37*M^day26:107440:-0.052441
B^ino37*M^day27:74007:-0.058050
B^ino37*M^day28:172776:-0.027613
B^ino37*M^day29:118232:-0.059528
B^ino37*M^day3:210661:0.061146
B^ino37*M^day30:186359:-0.097770
B^ino37*M^day31:194440:-0.074015
B^ino37*M^day4:146333:0.051089
B^ino37*M^day5:213145:0.101994
B^ino37*M^day6:14607:0.042956
B^ino37*M^day7:153944:0.029206
B^ino37*M^month1:229312:-0.014802
B^ino37*M^month12:95211:0.008766
B^ino37*M^month3:144082:-0.007765
B^ino37*M^month5:20948:0.024112
B^ino37*M^month9:92466:-0.005227
B^ino38*K^BlackFriday:217053:-0.217053
B^ino38*K^BlackFriday1:186728:0.230183
B^ino38*K^BlackFriday2:29215:0.382239
B^ino38*K^BlackFridayM2:152958:-0.174570
B^ino38*K^BlackFridayM3:261704:0.133938
B^ino38*K^ThanksgivingDay:65637:0.073394
B^ino38*M^day16:44351:-0.005714
B^ino38*M^day21:97034:-0.081225
B^ino38*M^day25:94492:0.101213
B^ino38*M^day27:236736:0.002055
B^ino38*M^day28:7999:0.083795
B^ino38*M^day29:225295:0.219471
B^ino38*M^day4:34378:-0.203628
B^ino38*M^day8:27348:-0.090138
B^ino38*M^month11:119993:0.077016
B^ino38*M^month12:249404:-0.065640
B^ino38*M^month3:36613:-0.020225
B^ino38*M^month7:227042:-0.091810
B^ino39*K^BlackFriday:5111:-0.034540
B^ino39*K^BlackFriday2:208437:-0.290875
B^ino39*K^BlackFridayM2:67924:-0.137576
B^ino39*K^BlackFridayM3:41570:-0.092989
B^ino39*K^ThanksgivingDay:154703:0.014733
B^ino39*M^day2:29712:-0.119704
B^ino39*M^day21:141088:0.028890
B^ino39*M^day26:16973:0.086957
B^ino39*M^day28:213781:0.105071
B^ino39*M^day3:186136:-0.012660
B^ino39*M^day4:252512:-0.169579
B^ino39*M^day5:172388:-0.219427
B^ino39*M^month1:171581:-0.026581
B^ino39*M^month11:166035:0.035104
B^ino39*M^month2:95609:0.053137
B^ino39*M^year2012:65108:0.017639
B^ino4*M^day10:72042:-0.016600
B^ino4*M^day15:259481:-0.091377
B^ino4*M^day22:93005:0.003799
B^ino4*M^day31:140450:-0.029575
B^ino4*M^day6:59941:-0.024554
B^ino4*M^day8:132137:-0.067533
B^ino4*M^month12:106689:-0.114388
B^ino4*M^month2:18350:-0.010820
B^ino40*K^BlackFriday:165228:-0.098466
B^ino40*K^BlackFriday1:201689:0.252954
B^ino40*K^BlackFriday3:51625:-0.151117
B^ino40*K^BlackFridayM3:144633:-0.199504
B^ino40*M^day14:128219:-0.085090
B^ino40*M^day20:169668:0.018647
B^ino40*M^day24:231018:-0.033579
B^ino40*M^day26:185558:-0.073216
B^ino40*M^day29:178878:0.026379
B^ino40*M^day5:14335:-0.072396
B^ino40*M^month12:132237:0.072866
B^ino40*M^month8:38120:-0.076158
B^ino41*K^BlackFridayM2:93894:0.267102
B^ino41*M^day1:4301:0.334397
B^ino41*M^day10:19503:0.231981
B^ino41*M^day18:24269:0.029797
B^ino41*M^day2:4994:0.032455
B^ino41*M^day23:118246:-0.008462
B^ino41*M^day26:9695:-0.041103
B^ino41*M^day28:205959:-0.074313
B^ino41*M^day29:19383:-0.068176
B^ino41*M^day30:217496:-0.065102
B^ino41*M^day31:225767:-0.016580
B^ino41*M^day4:245234:-0.039761
B^ino41*M^day5:182006:0.206708
B^ino41*M^day9:254863:-0.040535
B^ino41*M^month11:192257:0.005903
B^ino41*M^month8:157153:-0.004523
B^ino42*K^BlackFriday:219160:0.322502
B^ino42*K^BlackFriday1:183981:0.290726
B^ino42*K^BlackFriday3:70877:0.036487
B^ino42*K^BlackFridayM2:148155:0.409307
B^ino42*K^BlackFridayM3:256397:0.164112
B^ino42*M^day1:212144:0.093552
B^ino42*M^day19:32353:0.124241
B^ino42*M^day23:188827:0.100144
B^ino42*M^day3:105719:-0.026873
B^ino42*M^day30:32229:0.098603
B^ino42*M^day31:23962:0.040546
B^ino42*M^month1:120274:-0.206967
B^ino42*M^month10:118383:0.060774
B^ino42*M^month2:147094:0.071232
B^ino42*M^month3:39104:-0.006972
B^ino42*M^month5:195526:-0.029901
B^ino42*M^month8:84380:0.191631
B^ino42*M^month9:246560:-0.406706
B^ino43*K^BlackFriday:196809:-0.133044
B^ino43*K^BlackFriday2:15627:0.208889
B^ino43*K^BlackFridayM2:137834:0.270007
B^ino43*M^day15:119920:-0.001708
B^ino43*M^day16:57899:-0.115842
B^ino43*M^day20:201569:-0.039216
B^ino43*M^day21:78878:-0.016218
B^ino43*M^day31:1355:0.098742
B^ino43*M^day4:51550:0.053198
B^ino43*M^day5:111194:0.017066
B^ino43*M^day7:43931:0.140336
B^ino43*M^day8:9664:0.092523
B^ino43*M^day9:38691:0.030176
B^ino43*M^month10:104126:0.035643
B^ino43*M^month5:172823:-0.008573
B^ino43*M^month6:178082:0.010784
B^ino43*M^year2012:257386:-0.006542
B^ino43*M^year2013:147077:-0.002536
B^ino44:175801:-0.000520
B^ino44*K^BlackFriday:211914:-0.114792
B^ino44*K^BlackFriday2:1544:-0.053286
B^ino44*K^BlackFridayM2:139625:0.151712
B^ino44*K^BlackFridayM3:232031:0.218940
B^ino44*M^day1:221026:0.234943
B^ino44*M^day10:197504:0.111338
B^ino44*M^day11:250511:0.032744
B^ino44*M^day13:55440:-0.027861
B^ino44*M^day16:55592:-0.010125
B^ino44*M^day17:169297:-0.030852
B^ino44*M^day2:220205:0.054079
B^ino44*M^day21:69405:-0.014394
B^ino44*M^day22:225703:-0.012328
B^ino44*M^day23:164425:-0.011916
B^ino44*M^day26:223856:-0.047992
B^ino44*M^day28:27432:-0.013523
B^ino44*M^day29:197656:-0.034112
B^ino44*M^day3:130853:0.144323
B^ino44*M^day30:7735:-0.041858
B^ino44*M^day5:100697:0.200442
B^ino44*M^day6:192719:0.055258
B^ino44*M^day8:7875:-0.030215
B^ino44*M^month11:106670:-0.010926
B^ino44*M^month12:244267:0.009685
B^ino44*M^month4:118957:-0.001141
B^ino44*M^month6:167073:0.012288
B^ino45*K^BlackFriday:28484:-0.053092
B^ino45*K^BlackFriday1:129521:-0.030626
B^ino45*K^BlackFriday2:217734:-0.020991
B^ino45*K^BlackFridayM2:95719:0.128550
B^ino45*K^BlackFridayM3:57041:0.041615
B^ino45*K^ThanksgivingDay:139516:-0.474483
B^ino45*M^day1:3052:0.161687
B^ino45*M^day10:22286:0.068405
B^ino45*M^day11:34305:-0.016164
B^ino45*M^day12:135597:-0.007498
B^ino45*M^day13:232478:-0.018889
B^ino45*M^day14:204531:-0.027464
B^ino45*M^day15:179197:-0.001757
B^ino45*M^day18:17900:-0.000431
B^ino45*M^day19:215357:0.017567
B^ino45*M^day2:2211:0.076520
B^ino45*M^day22:9513:0.010150
B^ino45*M^day23:120519:-0.011486
B^ino45*M^day26:16126:-0.010446
B^ino45*M^day29:20630:-0.035007
B^ino45*M^day3:175019:0.063884
B^ino45*M^day30:215737:-0.007189
B^ino45*M^day5:187863:0.055394
B^ino45*M^day9:260270:-0.026347
B^ino45*M^month10:194867:-0.013520
B^ino45*M^month2:68042:-0.011652
B^ino45*M^month3:241564:-0.023289
B^ino45*M^month4:164899:-0.004388
B^ino45*M^month6:120879:0.010991
B^ino45*M^month8:163520:0.002493
B^ino46*K^BlackFriday:148808:0.789708
B^ino46*K^BlackFriday1:250877:0.149259
B^ino46*K^BlackFriday3:2445:-0.418682
B^ino46*K^BlackFridayM2:221163:0.546789
B^ino46*K^BlackFridayM3:193757:0.784469
B^ino46*K^ThanksgivingDay:2800:0.076220
B^ino46*M^day1:139744:0.068205
B^ino46*M^day15:37361:-0.097853
B^ino46*M^day17:256979:0.313716
B^ino46*M^day18:159712:-0.223688
B^ino46*M^day26:136434:-0.055486
B^ino46*M^day27:169557:-0.118858
B^ino46*M^day31:82122:-0.582342
B^ino46*M^month7:162935:-0.013466
B^ino47*K^BlackFriday2:7050:0.722735
B^ino47*K^BlackFriday3:92813:0.187438
B^ino47*M^day10:204290:0.202658
B^ino47*M^day16:50346:-0.184024
B^ino47*M^day26:227314:-0.001039
B^ino47*M^day27:259413:0.089738
B^ino47*M^day31:9162:-0.101849
B^ino47*M^day7:36122:0.187877
B^ino47*M^day8:833:-0.272734
B^ino47*M^month3:59024:0.039929
B^ino47*M^month4:118063:-0.006609
B^ino47*M^month7:204663:-0.016481
B^ino47*M^month8:79820:0.349343
B^ino47*M^month9:245104:-0.023705
B^ino48*K^BlackFriday:59929:-0.018458
B^ino48*K^BlackFriday1:97452:-0.136662
B^ino48*K^BlackFriday2:251867:-0.056792
B^ino48*K^BlackFriday3:173788:0.019877
B^ino48*K^BlackFridayM2:127162:0.024496
B^ino48*K^BlackFridayM3:23436:0.256595
B^ino48*K^ThanksgivingDay:173473:-0.355582
B^ino48*M^day1:36529:0.186663
B^ino48*M^day13:198979:-0.038450
B^ino48*M^day14:236462:-0.079019
B^ino48*M^day18:49329:-0.022778
B^ino48*M^day28:244475:0.014761
B^ino48*M^day29:54731:0.060940
B^ino48*M^day4:205710:0.027470
B^ino48*M^month11:160125:0.067528
B^ino48*M^month12:27640:0.084382
B^ino48*M^month2:101527:-0.017964
B^ino48*M^month3:207553:-0.032479
B^ino48*M^year2012:1978:-0.016251
B^ino49*K^BlackFridayM2:43858:-0.148800
B^ino49*K^BlackFridayM3:65636:-0.070624
B^ino49*K^ThanksgivingDay:261705:0.141616
B^ino49*M^day1:120153:0.001904
B^ino49*M^day15:222536:-0.087612
B^ino49*M^day17:8042:-0.004329
B^ino49*M^day3:226590:-0.009622
B^ino49*M^day6:31476:-0.006324
B^ino49*M^day7:137891:0.080850
B^ino49*M^day9:140827:-0.104180
B^ino49*M^month1:212027:-0.048212
B^ino49*M^month2:55167:0.007596
B^ino49*M^month3:160041:-0.134452
B^ino5:40848:-0.017152
B^ino5*K^BlackFriday:72001:-0.096969
B^ino5*K^BlackFriday1:36852:-0.056555
B^ino5*K^BlackFridayM2:994:-0.153636
B^ino5*K^ThanksgivingDay:218873:-0.817008
B^ino5*M^day1:97769:0.224642
B^ino5*M^day10:73995:0.157228
B^ino5*M^day14:157942:-0.005771
B^ino5*M^day16:195491:-0.007402
B^ino5*M^day18:78825:-0.018996
B^ino5*M^day2:97958:0.133490
B^ino5*M^day20:68329:-0.015272
B^ino5*M^day21:208278:-0.054799
B^ino5*M^day23:41154:-0.043116
B^ino5*M^day24:6727:-0.089566
B^ino5*M^day25:206720:-0.017713
B^ino5*M^day26:84219:-0.100424
B^ino5*M^day27:117340:-0.056360
B^ino5*M^day28:149923:-0.036561
B^ino5*M^day29:75411:-0.129394
B^ino5*M^day3:253358:0.116626
B^ino5*M^day30:146620:-0.062105
B^ino5*M^day31:138435:-0.076562
B^ino5*M^day5:240594:0.202437
B^ino5*M^day6:53828:0.050318
B^ino5*M^day7:176659:0.052792
B^ino5*M^month1:234635:0.004530
B^ino5*M^month12:104608:0.020340
B^ino5*M^month2:32719:-0.004742
B^ino5*M^month3:186777:-0.045678
B^ino5*M^month4:258598:-0.006163
B^ino5*M^month5:47775:-0.009525
B^ino5*M^month7:73854:0.012216
B^ino5*M^month9:98937:-0.033096
B^ino5*M^year2013:9997:-0.007458
B^ino50*K^BlackFriday:187822:0.199000
B^ino50*K^BlackFriday1:215835:-0.327153
B^ino50*K^BlackFridayM2:247565:-0.118078
B^ino50*K^BlackFridayM3:158779:-0.044087
B^ino50*M^day14:109593:-0.106739
B^ino50*M^day17:226101:-0.059588
B^ino50*M^day19:130007:-0.004206
B^ino50*M^day2:178761:-0.040475
B^ino50*M^day20:183814:-0.029728
B^ino50*M^day24:253608:0.012058
B^ino50*M^day6:202411:0.015410
B^ino50*M^day7:95996:0.007345
B^ino50*M^month1:20580:-0.063616
B^ino50*M^month12:154703:0.014733
B^ino50*M^month4:14025:0.008578
B^ino50*M^year2012:143373:0.019149
B^ino51*K^BlackFridayM2:114523:-0.233033
B^ino51*K^BlackFridayM3:5229:-0.001845
B^ino51*M^day15:160065:-0.120894
B^ino51*M^day25:170809:-0.068223
B^ino51*M^day31:237690:-0.044422
B^ino51*M^day7:200362:0.011433
B^ino51*M^day8:229617:0.004655
B^ino51*M^month12:9241:0.008233
B^ino51*M^month3:222496:-0.049004
B^ino51*M^month5:67110:-0.009211
B^ino51*M^month9:16064:-0.008770
B^ino52*M^day1:112892:-0.064660
B^ino52*M^day16:147126:0.031568
B^ino52*M^day2:113587:0.030976
B^ino52*M^month12:89525:-0.015402
B^ino53*K^BlackFriday1:236440:0.304531
B^ino53*K^BlackFriday3:16872:-0.254994
B^ino53*K^BlackFridayM2:202638:-0.221742
B^ino53*K^BlackFridayM3:179384:-0.247171
B^ino53*K^ThanksgivingDay:17045:0.143833
B^ino53*M^month8:7337:-0.022398
B^ino54*K^BlackFriday:199788:0.054426
B^ino54*K^BlackFridayM2:136911:-0.305763
B^ino54*K^BlackFridayM3:245241:0.138222
B^ino54*K^ThanksgivingDay:82900:0.470563
B^ino54*M^day1:223428:-0.068536
B^ino54*M^day17:172791:-0.031425
B^ino54*M^day20:204740:0.008990
B^ino54*M^day21:80059:0.076521
B^ino54*M^day22:214529:0.030752
B^ino54*M^day24:135018:0.155283
B^ino54*M^day30:10641:-0.014146
B^ino54*M^day31:2542:0.031880
B^ino54*M^day6:182121:0.000434
B^ino54*M^month10:104987:0.007484
B^ino55*M^day18:209952:0.011082
B^ino55*M^day24:138638:-0.013781
B^ino55*M^day25:73801:0.062456
B^ino55*M^day26:216882:-0.057545
B^ino55*M^day3:121447:-0.034358
B^ino55*M^day30:15221:0.066842
B^ino55*M^day4:55071:-0.074505
B^ino55*M^day5:109595:-0.168501
B^ino55*M^day7:46554:-0.077859
B^ino55*M^month5:179542:-0.050362
B^ino55*M^month8:69388:0.077612
B^ino55*M^month9:230832:-0.020123
B^ino56*M^day25:171981:0.012960
B^ino56*M^day28:258542:-0.009038
B^ino56*M^day30:230641:0.030479
B^ino56*M^day6:92681:-0.043634
B^ino56*M^month1:142534:0.078041
B^ino56*M^month12:8429:-0.060963
B^ino56*M^month2:116610:-0.012333
B^ino56*M^month8:176264:0.030872
B^ino56*M^month9:14900:-0.022639
B^ino57*M^day17:202160:0.078835
B^ino57*M^day18:168323:-0.091738
B^ino57*M^day23:197288:-0.000791
B^ino57*M^month12:146122:-0.009680
B^ino57*M^month8:43695:0.000816
B^ino57*M^month9:139283:-0.022425
B^ino58*K^BlackFriday:51806:0.073343
B^ino58*K^BlackFriday1:89323:-0.013824
B^ino58*K^BlackFriday2:259996:-0.138015
B^ino58*K^BlackFriday3:165531:-0.151169
B^ino58*K^ThanksgivingDay:165350:0.225155
B^ino58*M^day22:32819:-0.096351
B^ino58*M^day4:197577:-0.071260
B^ino58*M^day9:220596:-0.180639
B^ino58*M^month11:151866:-0.122588
B^ino58*M^month12:19391:0.075137
B^ino59*K^BlackFriday2:194055:-0.341675
B^ino59*K^BlackFridayM3:96848:0.442532
B^ino59*M^day2:109602:-0.147431
B^ino59*M^day20:120941:0.024160
B^ino59*M^day23:29254:0.077997
B^ino59*M^day26:105087:0.009247
B^ino59*M^day8:192204:-0.003836
B^ino59*M^day9:154671:-0.097359
B^ino59*M^month3:133917:0.018005
B^ino59*M^month4:204962:0.009772
B^ino6*K^BlackFriday:101242:0.400632
B^ino6*K^BlackFriday1:7631:-0.289011
B^ino6*K^BlackFridayM3:80623:0.247269
B^ino6*K^ThanksgivingDay:246978:-0.578916
B^ino6*M^day10:111408:0.067043
B^ino6*M^day12:259475:0.088849
B^ino6*M^day13:157728:0.157113
B^ino6*M^day19:175363:-0.116733
B^ino6*M^day20:104658:-0.085310
B^ino6*M^day22:114967:-0.070828
B^ino6*M^day23:13049:-0.207883
B^ino6*M^day24:34940:-0.057979
B^ino6*M^day26:121536:-0.070168
B^ino6*M^day27:88167:-0.043610
B^ino6*M^day4:148205:0.220863
B^ino6*M^day6:16511:0.206253
B^ino6*M^day7:139304:0.345606
B^ino6*M^day8:175731:0.005528
B^ino6*M^day9:138384:0.166787
B^ino6*M^month10:204045:-0.067136
B^ino6*M^month3:150434:-0.002183
B^ino6*M^month5:10404:-0.050468
B^ino60*K^BlackFriday1:70484:-0.315390
B^ino60*K^BlackFriday2:243747:0.121801
B^ino60*K^BlackFriday3:182564:-0.347183
B^ino60*K^BlackFridayM2:106306:-0.369571
B^ino60*K^ThanksgivingDay:182873:0.337380
B^ino60*M^day12:195336:-0.136199
B^ino60*M^day22:53132:-0.079128
B^ino60*M^day26:54363:0.029304
B^ino60*M^day27:22268:0.019882
B^ino60*M^day28:251139:-0.005239
B^ino60*M^day30:237596:0.042276
B^ino60*M^day8:237800:0.066401
B^ino61*M^day17:116557:-0.059683
B^ino61*M^day18:17278:-0.006882
B^ino61*M^month1:189468:0.002988
B^ino61*M^month10:196513:-0.188343
B^ino61*M^month12:59447:-0.063383
B^ino61*M^month8:161874:0.044228
B^ino61*M^month9:62190:-0.033804
B^ino62*M^day10:162088:-0.121700
B^ino62*M^day19:91931:0.048522
B^ino62*M^day22:133903:0.085908
B^ino62*M^day26:135384:-0.004276
B^ino62*M^day27:168575:0.023123
B^ino62*M^day29:163504:-0.034653
B^ino62*M^day3:34189:-0.127189
B^ino62*M^month10:55061:-0.021110
B^ino62*M^month12:180355:-0.030546
B^ino62*M^month9:186970:-0.036372
B^ino63*M^day16:26329:-0.033866
B^ino63*M^day26:251265:0.063810
B^ino63*M^day4:19884:0.055587
B^ino64*K^BlackFriday2:238388:0.170721
B^ino64*M^day11:30643:-0.103320
B^ino64*M^day12:188447:0.146284
B^ino64*M^day15:150095:0.339612
B^ino64*M^day16:228372:-0.119050
B^ino64*M^day19:243855:0.002420
B^ino64*M^day21:174625:-0.141726
B^ino64*M^day22:54427:0.013194
B^ino64*M^day23:75637:0.097977
B^ino64*M^day30:244491:-0.094076
B^ino64*M^month10:133249:-0.090779
B^ino64*M^month12:7959:-0.064725
B^ino64*M^month3:220718:0.008375
B^ino64*M^month4:161169:-0.139776
B^ino64*M^month8:167794:0.011881
B^ino64*M^year2013:106682:-0.014936
B^ino65*K^BlackFriday:182255:-0.017689
B^ino65*K^BlackFriday1:217434:-0.217181
B^ino65*K^BlackFriday2:129581:-0.144821
B^ino65*K^BlackFriday3:35626:0.744650
B^ino65*K^BlackFridayM2:253260:-0.104832
B^ino65*K^BlackFridayM3:161402:-0.179435
B^ino65*K^ThanksgivingDay:34903:0.110856
B^ino65*M^day12:47366:-0.143595
B^ino65*M^day13:74933:0.010192
B^ino65*M^day16:75021:0.081463
B^ino65*M^day18:191815:0.042374
B^ino65*M^day20:185415:-0.008370
B^ino65*M^day22:167298:0.085599
B^ino65*M^day26:169557:-0.118858
B^ino65*M^day27:136434:-0.055486
B^ino65*M^day30:123410:-0.015818
B^ino65*M^day31:115309:0.076264
B^ino65*M^day9:86021:-0.046285
B^ino65*M^month12:149006:-0.010901
B^ino65*M^month6:225412:0.017349
B^ino66*K^BlackFriday:105745:0.061739
B^ino66*K^BlackFriday3:250324:0.430167
B^ino66*K^BlackFridayM2:34738:-0.264294
B^ino66*K^ThanksgivingDay:250537:-1.400468
B^ino66*M^day10:107867:0.006837
B^ino66*M^day20:102073:0.001104
B^ino66*M^day31:170131:0.065834
B^ino66*M^day5:208770:0.026656
B^ino66*M^day8:178200:-0.008926
B^ino67*K^BlackFriday:246075:-0.226863
B^ino67*K^BlackFriday2:64761:-0.568683
B^ino67*K^BlackFriday3:101886:-0.672766
B^ino67*K^BlackFridayM3:225454:-0.155244
B^ino67*K^ThanksgivingDay:102019:-0.047263
B^ino67*M^day10:260465:0.004610
B^ino67*M^day23:161976:-0.039581
B^ino67*M^day29:261865:-0.149904
B^ino67*M^day5:95144:-0.064105
B^ino67*M^day6:133694:-0.003929
B^ino67*M^day7:27241:-0.091251
B^ino67*M^month1:85233:-0.141170
B^ino67*M^month3:483:-0.029360
B^ino67*M^month4:76380:0.029966
B^ino67*M^month8:118975:-0.068453
B^ino68*K^BlackFriday:101831:-0.019054
B^ino68*K^BlackFriday2:176133:-0.031065
B^ino68*K^BlackFridayM2:38756:0.344492
B^ino68*K^ThanksgivingDay:246399:-0.283182
B^ino68*M^day1:125295:0.061922
B^ino68*M^day10:112013:-0.001750
B^ino68*M^day18:108399:-0.040175
B^ino68*M^day2:125472:0.025545
B^ino68*M^day20:106095:-0.015852
B^ino68*M^day22:116650:-0.005178
B^ino68*M^day23:13380:-0.046422
B^ino68*M^day26:121981:0.010408
B^ino68*M^day29:111125:-0.029910
B^ino68*M^day3:215336:0.087690
B^ino68*M^day30:174138:-0.018462
B^ino68*M^month3:150815:0.031590
B^ino68*M^month9:71423:-0.009968
B^ino69*K^BlackFriday:112528:0.353516
B^ino69*K^BlackFriday1:8485:-0.373870
B^ino69*K^BlackFriday3:260949:0.495666
B^ino69*K^BlackFridayM2:44339:0.055235
B^ino69*K^BlackFridayM3:67077:0.317710
B^ino69*K^ThanksgivingDay:260136:0.133528
B^ino69*M^day1:119608:-0.073404
B^ino69*M^day11:89813:-0.163204
B^ino69*M^day22:130557:0.152290
B^ino69*M^day28:190322:0.086848
B^ino69*M^day5:197891:0.033199
B^ino69*M^month10:205287:0.112600
B^ino69*M^month12:79473:-0.021053
B^ino69*M^month8:239124:-0.052266
B^ino69*M^month9:76968:0.039038
B^ino7*M^day14:85002:-0.031870
B^ino7*M^day17:234278:-0.013722
B^ino7*M^day18:136981:0.093688
B^ino7*M^day2:154202:-0.089655
B^ino7*M^day20:142869:-0.006243
B^ino7*M^day23:230462:0.054987
B^ino7*M^day26:158727:-0.006948
B^ino7*M^day27:192160:0.016617
B^ino7*M^day28:93535:0.122341
B^ino70*M^day13:261140:0.032099
B^ino70*M^day20:3302:0.041329
B^ino70*M^day3:187297:-0.015456
B^ino70*M^day31:203468:-0.148069
B^ino70*M^day4:251609:-0.092311
B^ino70*M^month2:96704:-0.070344
B^ino70*M^month3:253846:0.057772
B^ino70*M^month9:33910:-0.057962
B^ino70*M^year2012:62189:0.002395
B^ino71*K^BlackFriday:126067:0.363930
B^ino71*K^BlackFriday1:31430:-0.103218
B^ino71*K^BlackFriday3:237750:0.469602
B^ino71*K^BlackFridayM2:63184:-0.093778
B^ino71*K^BlackFridayM3:89574:0.164734
B^ino71*K^ThanksgivingDay:238539:0.160788
B^ino71*M^day15:211146:-0.042648
B^ino71*M^day7:149281:-0.061295
B^ino71*M^month12:93586:-0.033447
B^ino71*M^month3:142507:0.006887
B^ino72*K^BlackFriday:213954:0.315756
B^ino72*K^BlackFridayM2:153953:0.166220
B^ino72*K^ThanksgivingDay:68730:0.112436
B^ino72*M^day10:228232:-0.002560
B^ino72*M^day19:26043:0.000036
B^ino72*M^day20:217194:0.034967
B^ino72*M^day27:233695:-0.026586
B^ino72*M^day3:100141:-0.000002
B^ino72*M^day8:26315:-0.026323
B^ino72*M^day9:54312:0.058504
B^ino73*K^BlackFriday1:178346:-0.190891
B^ino73*K^BlackFriday2:5085:-0.086995
B^ino73*K^BlackFriday3:90842:0.365226
B^ino73*K^BlackFridayM2:144572:-0.150560
B^ino73*K^BlackFridayM3:237450:-0.038866
B^ino73*K^ThanksgivingDay:90535:0.144270
B^ino73*M^day11:247642:-0.102267
B^ino73*M^day12:86262:-0.006625
B^ino73*M^day17:163972:-0.037336
B^ino73*M^day26:229285:0.074353
B^ino73*M^day4:59272:-0.033569
B^ino73*M^month3:61127:-0.025759
B^ino74*M^day10:208796:0.128693
B^ino74*M^day21:74497:-0.148233
B^ino74*M^day23:175701:0.094271
B^ino74*M^day26:214636:-0.199871
B^ino74*M^day6:187603:-0.091463
B^ino74*M^month1:104988:-0.038247
B^ino74*M^month2:160088:-0.188130
B^ino75*K^BlackFriday:13669:-0.230077
B^ino75*K^BlackFriday1:107472:0.643550
B^ino75*K^BlackFriday3:162208:0.492190
B^ino75*K^BlackFridayM3:34032:-0.355528
B^ino75*K^ThanksgivingDay:162525:-0.188306
B^ino75*M^day2:21122:0.043307
B^ino75*M^day28:222599:0.118116
B^ino75*M^day29:2743:-0.064475
B^ino75*M^day30:200856:-0.060691
B^ino75*M^day31:209127:-0.005076
B^ino75*M^day5:165878:-0.100026
B^ino75*M^month5:104123:-0.004259
B^ino76*M^day10:37916:0.016404
B^ino76*M^day15:162031:-0.025787
B^ino76*M^day2:52145:-0.087445
B^ino76*M^day21:170113:-0.030157
B^ino76*M^day29:37764:-0.105757
B^ino76*M^day9:211900:-0.056286
B^ino76*M^month1:139676:0.007491
B^ino76*M^month9:14190:-0.048353
B^ino77*M^day1:208490:0.036839
B^ino77*M^day11:238471:-0.097921
B^ino77*M^day12:78891:0.151661
B^ino77*M^day13:43416:-0.102461
B^ino77*M^day14:15221:0.066842
B^ino77*M^day20:219498:-0.010027
B^ino77*M^day27:235999:-0.041434
B^ino77*M^day7:57744:0.269151
B^ino77*M^month1:116488:-0.358132
B^ino77*M^month2:142412:-0.133758
B^ino77*M^month3:35354:0.052274
B^ino77*M^month4:106917:-0.008165
B^ino77*M^month9:250362:-0.088400
B^ino78*M^day21:95438:-0.093639
B^ino78*M^day25:98008:0.408257
B^ino78*M^day28:4347:0.122420
B^ino78*M^day30:26084:-0.230445
B^ino78*M^day6:166684:-0.094691
B^ino78*M^month7:227622:0.011879
B^ino78*M^month9:252705:-0.132202
B^ino79*K^BlackFriday:170352:-0.091632
B^ino79*K^BlackFriday1:200645:-0.140272
B^ino79*K^BlackFridayM2:230355:-0.222924
B^ino79*K^ThanksgivingDay:54984:-0.023180
B^ino79*M^day11:159797:0.101636
B^ino79*M^day17:210923:-0.053744
B^ino79*M^day20:166616:0.024233
B^ino79*M^day23:205043:-0.030032
B^ino79*M^day24:236150:-0.056876
B^ino79*M^day27:150125:-0.273285
B^ino79*M^day4:86247:0.016628
B^ino79*M^day5:11235:0.021317
B^ino79*M^month11:532:0.030047
B^ino79*M^month4:29207:0.009448
B^ino79*M^month7:172111:0.028015
B^ino8:236824:-0.028104
B^ino8*K^BlackFriday:162361:0.092827
B^ino8*K^BlackFriday1:257164:-0.280467
B^ino8*K^BlackFriday3:14076:0.164785
B^ino8*K^BlackFridayM3:183212:-0.120533
B^ino8*M^day1:138897:0.386051
B^ino8*M^day10:148083:0.169809
B^ino8*M^day11:168828:0.123754
B^ino8*M^day12:1232:0.026724
B^ino8*M^day13:104803:0.023917
B^ino8*M^day21:20206:-0.022971
B^ino8*M^day24:227647:-0.231341
B^ino8*M^day25:17656:-0.027619
B^ino8*M^day26:142211:-0.219679
B^ino8*M^day27:174372:-0.086277
B^ino8*M^day28:76507:-0.006613
B^ino8*M^day3:48854:0.240197
B^ino8*M^day30:90052:-0.063617
B^ino8*M^day31:98235:-0.081002
B^ino8*M^day4:111534:-0.039557
B^ino8*M^day5:51370:0.490995
B^ino8*M^day6:241980:0.211705
B^ino8*M^day8:89904:0.033047
B^ino8*M^month11:57693:0.052773
B^ino8*M^month8:27581:-0.024649
B^ino8*M^month9:188673:-0.047908
B^ino8*M^year2012:169882:-0.022707
B^ino80*K^BlackFriday1:16137:-0.051650
B^ino80*K^BlackFriday2:169086:-0.111480
B^ino80*K^BlackFriday3:255353:-0.031021
B^ino80*K^BlackFridayM2:45855:-0.171147
B^ino80*K^BlackFridayM3:71721:-0.168239
B^ino80*K^ThanksgivingDay:255492:0.031824
B^ino80*M^day12:251733:-0.039084
B^ino80*M^day13:150246:0.088072
B^ino80*M^day16:150366:-0.026824
B^ino80*M^day18:99092:-0.031932
B^ino80*M^day19:167877:0.038429
B^ino80*M^day21:236907:0.003819
B^ino80*M^day27:96929:-0.060101
B^ino80*M^day9:147030:-0.026004
B^ino80*M^month12:75869:-0.000008
B^ino80*M^month2:53042:0.011482
B^ino80*M^month3:158052:-0.018223
B^ino80*M^month6:7895:-0.023586
B^ino80*M^month9:78468:0.002901
B^ino81*K^BlackFriday1:85974:-0.034728
B^ino81*K^BlackFriday2:255137:-0.119256
B^ino81*K^BlackFriday3:169382:-0.333341
B^ino81*K^BlackFridayM2:115648:0.099995
B^ino81*K^BlackFridayM3:26870:0.209353
B^ino81*K^ThanksgivingDay:169691:-0.337063
B^ino81*M^day14:239828:-0.025215
B^ino81*M^day24:121445:-0.050337
B^ino81*M^day27:2686:0.062603
B^ino81*M^day28:231809:0.009708
B^ino81*M^day4:200948:0.066972
B^ino81*M^day7:225841:-0.031478
B^ino81*M^day8:261226:-0.002010
B^ino81*M^day9:216713:-0.066045
B^ino81*M^month12:22658:0.078421
B^ino81*M^month9:16987:-0.122095
B^ino82*K^BlackFriday:42650:0.613909
B^ino82*K^BlackFriday1:77871:-0.037219
B^ino82*K^BlackFriday2:236376:-0.236104
B^ino82*K^BlackFriday3:191071:0.457556
B^ino82*K^BlackFridayM2:113721:-0.218920
B^ino82*K^BlackFridayM3:5903:0.571372
B^ino82*K^ThanksgivingDay:190754:0.005795
B^ino82*M^day1:49714:-0.035693
B^ino82*M^day21:168525:-0.069884
B^ino82*M^day22:60663:-0.006555
B^ino82*M^day25:170075:0.069857
B^ino82*M^day27:30087:0.023979
B^ino82*M^day5:136201:-0.147639
B^ino82*M^month3:222786:0.008947
B^ino83*K^BlackFriday:94223:0.201986
B^ino83*K^BlackFriday1:59066:0.173682
B^ino83*K^BlackFridayM2:27308:-0.033273
B^ino83*K^BlackFridayM3:115098:0.046338
B^ino83*K^Else:117660:-0.009675
B^ino83*K^ThanksgivingDay:212919:0.020606
B^ino83*M^day13:168789:0.009005
B^ino83*M^day14:131512:-0.026172
B^ino83*M^day24:29449:-0.033856
B^ino83*M^day28:139501:-0.004714
B^ino83*M^day4:178584:-0.014418
B^ino83*M^day5:246428:0.002109
B^ino83*M^day7:187229:-0.030689
B^ino83*M^month10:255608:0.164288
B^ino84*K^BlackFriday1:81194:-0.084105
B^ino84*K^BlackFriday2:235101:-0.163077
B^ino84*K^ThanksgivingDay:189479:0.079648
B^ino84*M^day1:53047:-0.022218
B^ino84*M^day10:37845:-0.003339
B^ino84*M^day17:66820:0.012009
B^ino84*M^day18:33079:-0.021000
B^ino84*M^day2:52344:-0.019906
B^ino84*M^day21:171848:-0.018221
B^ino84*M^day22:57842:0.026123
B^ino84*M^day3:159600:-0.031405
B^ino84*M^day5:137484:-0.010682
B^ino84*M^month2:118033:-0.009369
B^ino84*M^month5:67649:0.004430
B^ino84*M^month8:178715:-0.000629
B^ino84*M^month9:12455:0.028196
B^ino85*K^BlackFriday:253968:0.135699
B^ino85*K^BlackFriday1:161445:0.007551
B^ino85*K^BlackFriday2:56786:-0.009374
B^ino85*K^BlackFridayM3:217477:-0.006339
B^ino85*K^ThanksgivingDay:110504:0.219709
B^ino85*M^day1:230584:-0.142546
B^ino85*M^day10:251994:-0.132795
B^ino85*M^day12:106233:-0.011590
B^ino85*M^day17:151179:-0.017083
B^ino85*M^day4:10631:-0.035099
B^ino85*M^day5:86659:-0.154775
B^ino85*M^day6:142101:-0.009068
B^ino86*K^BlackFriday:238549:0.130622
B^ino86*K^BlackFridayM2:178550:-0.029684
B^ino86*K^ThanksgivingDay:126061:0.177185
B^ino86*M^day1:247677:-0.021498
B^ino86*M^day10:236447:-0.017043
B^ino86*M^day11:215696:-0.047086
B^ino86*M^day15:96108:-0.016865
B^ino86*M^day19:34220:0.038952
B^ino86*M^day2:246834:-0.012661
B^ino86*M^day21:104194:0.017151
B^ino86*M^day22:256440:0.002435
B^ino86*M^day25:105748:0.010896
B^ino86*M^day26:258671:0.002226
B^ino86*M^day27:225480:0.003198
B^ino86*M^day31:42583:0.027092
B^ino86*M^day7:2183:-0.030929
B^ino86*M^day8:34524:-0.065522
B^ino86*M^month10:79266:0.002459
B^ino86*M^month11:80049:-0.040009
B^ino86*M^month3:25357:-0.002216
B^ino86*M^month4:84146:0.009857
B^ino87*K^BlackFriday:226453:0.341888
B^ino87*K^BlackFriday1:188960:-0.085928
B^ino87*K^BlackFriday2:18775:-0.135522
B^ino87*K^BlackFridayM2:159286:-0.047998
B^ino87*K^BlackFridayM3:247040:-0.463958
B^ino87*K^ThanksgivingDay:80685:0.368434
B^ino87*M^day13:38863:-0.009486
B^ino87*M^day15:106540:-0.069045
B^ino87*M^day18:220733:0.025120
B^ino87*M^day24:161683:0.022311
B^ino87*M^day27:239496:0.017797
B^ino87*M^day4:48386:0.033139
B^ino87*M^month6:181246:-0.000585
B^ino87*M^month8:91409:0.029510
B^ino88*M^day10:193102:0.121443
B^ino88*M^day11:140097:-0.020953
B^ino88*M^day12:46317:0.001569
B^ino88*M^day14:113587:0.030976
B^ino88*M^day20:186796:-0.067415
B^ino88*M^day22:163945:-0.019090
B^ino88*M^day26:170942:-0.030131
B^ino88*M^day4:66451:0.055193
B^ino88*M^day5:30871:-0.015568
B^ino88*M^day6:196865:0.019523
B^ino88*M^day8:126733:-0.057386
B^ino88*M^month11:20832:-0.104252
B^ino88*M^month3:68316:-0.034049
B^ino88*M^month4:8547:0.015033
B^ino89*K^BlackFriday:71399:0.003976
B^ino89*K^BlackFriday2:142117:-0.113319
B^ino89*K^BlackFriday3:219682:-0.010828
B^ino89*K^BlackFridayM2:3140:-0.007896
B^ino89*K^BlackFridayM3:108402:-0.075751
B^ino89*K^ThanksgivingDay:219487:0.097971
B^ino89*M^day1:94799:-0.134630
B^ino89*M^day14:157520:-0.112505
B^ino89*M^day21:205360:-0.088198
B^ino89*M^day26:83805:-0.044271
B^ino89*M^day27:116218:-0.077939
B^ino89*M^day30:144154:-0.076179
B^ino89*M^day31:136037:-0.141659
B^ino89*M^day6:56802:-0.021174
B^ino89*M^month10:229520:0.041445
B^ino89*M^month11:232835:-0.116183
B^ino89*M^month6:41356:-0.041979
B^ino9*K^BlackFriday:220939:-0.121665
B^ino9*K^ThanksgivingDay:69811:-0.302918
B^ino9*M^day1:211875:0.086860
B^ino9*M^day10:223041:0.046320
B^ino9*M^day11:243278:0.042615
B^ino9*M^day12:74210:0.082791
B^ino9*M^day15:101298:0.018884
B^ino9*M^day16:48617:-0.016809
B^ino9*M^day17:192912:-0.083497
B^ino9*M^day18:226723:-0.033529
B^ino9*M^day19:31090:-0.056201
B^ino9*M^day2:211180:0.095246
B^ino9*M^day20:216227:-0.079783
B^ino9*M^day21:93148:-0.081655
B^ino9*M^day22:202086:-0.081407
B^ino9*M^day23:190088:-0.068565
B^ino9*M^day24:154637:-0.074849
B^ino9*M^day25:90570:-0.084777
B^ino9*M^day26:200369:-0.130616
B^ino9*M^day27:232470:-0.114749
B^ino9*M^day28:4073:-0.066495
B^ino9*M^day29:221401:-0.134688
B^ino9*M^day3:105444:0.041713
B^ino9*M^day30:31478:-0.137941
B^ino9*M^day31:23177:-0.098434
B^ino9*M^day4:38556:0.020369
B^ino9*M^day5:126360:0.137104
B^ino9*M^day6:168974:0.130045
B^ino9*M^day7:62553:0.028466
B^ino9*M^month5:195797:-0.049393
B^ino9*M^month8:85647:0.021627
B^ino90*K^BlackFriday:29174:0.194783
B^ino90*K^BlackFriday1:124739:0.304680
B^ino90*K^BlackFriday2:216116:0.018164
B^ino90*K^BlackFriday3:146739:-0.399550
B^ino90*K^BlackFridayM2:93013:0.022677
B^ino90*K^BlackFridayM3:49251:-0.323623
B^ino90*K^ThanksgivingDay:147022:-0.107144
B^ino90*M^day15:173391:0.022152
B^ino90*M^day16:234260:0.080344
B^ino90*M^day17:122733:-0.032687
B^ino90*M^day18:23390:0.029641
B^ino90*M^day25:151351:-0.036890
B^ino90*M^day28:205076:-0.080519
B^ino90*M^day5:181093:-0.030185
B^ino91*K^BlackFriday1:74052:0.033191
B^ino91*K^BlackFriday2:231987:0.014941
B^ino91*K^BlackFriday3:195380:0.399929
B^ino91*K^BlackFridayM3:1636:-0.158885
B^ino91*K^ThanksgivingDay:194633:0.643216
B^ino91*M^day17:72042:-0.016600
B^ino91*M^day23:69234:-0.045830
B^ino91*M^day28:255763:-0.138415
B^ino91*M^day6:97524:0.014724
B^ino91*M^month1:145979:0.030954
B^ino91*M^month8:173685:0.003105
B^ino92*M^day12:84699:-0.182017
B^ino92*M^day13:55144:0.083650
B^ino92*M^day24:145204:-0.069930
B^ino92*M^day25:68339:-0.179109
B^ino92*M^day26:222600:-0.106351
B^ino92*M^day29:199648:-0.044678
B^ino92*M^month2:152252:-0.034717
B^ino92*M^month9:241418:-0.014115
B^ino93*K^BlackFriday2:198862:-0.178347
B^ino93*K^BlackFridayM2:77743:-0.198321
B^ino93*M^day19:201589:-0.014966
B^ino93*M^day2:21227:-0.070945
B^ino93*M^day25:134093:0.040507
B^ino93*M^day27:58897:0.028625
B^ino93*M^day31:209038:0.078833
B^ino93*M^day4:261275:-0.054271
B^ino93*M^day5:165791:-0.108364
B^ino93*M^day8:200709:0.029516
B^ino93*M^day9:238310:0.026323
B^ino93*M^month11:175720:-0.024833
B^ino93*M^month12:46317:0.001569
B^ino93*M^month6:98919:0.045823
B^ino93*M^month7:3123:-0.031928
B^ino94*K^BlackFriday:92759:-0.338971
B^ino94*K^BlackFriday1:64738:0.231897
B^ino94*K^BlackFriday3:206482:0.141177
B^ino94*K^BlackFridayM3:121794:-0.506319
B^ino94*K^ThanksgivingDay:206319:-0.230123
B^ino94*M^day10:86557:0.056302
B^ino94*M^day15:245486:0.069452
B^ino94*M^day23:54228:0.019184
B^ino94*M^day29:87429:0.046436
B^ino94*M^day5:252100:-0.035449
B^ino95*K^BlackFriday:114950:-0.104736
B^ino95*K^BlackFriday1:22451:-0.070672
B^ino95*K^BlackFriday2:195780:0.131735
B^ino95*K^BlackFriday3:232899:0.099120
B^ino95*K^BlackFridayM2:56229:-0.042089
B^ino95*K^BlackFridayM3:94355:0.072539
B^ino95*K^ThanksgivingDay:233150:-0.085301
B^ino95*M^day11:75843:-0.017946
B^ino95*M^day12:245743:-0.133480
B^ino95*M^day13:139868:-0.149461
B^ino95*M^day17:28573:0.008335
B^ino95*M^day29:130772:-0.027029
B^ino95*M^day31:181380:-0.087532
B^ino95*M^month10:218993:0.007792
B^ino95*M^month8:249986:-0.036257
B^ino96*K^BlackFriday:88541:-0.483927
B^ino96*K^BlackFriday1:53096:-0.555535
B^ino96*K^BlackFriday2:156703:-0.692475
B^ino96*K^BlackFriday3:202008:0.691739
B^ino96*K^BlackFridayM2:17278:-0.006882
B^ino96*K^BlackFridayM3:125000:0.428221
B^ino96*K^ThanksgivingDay:202341:-0.529407
B^ino96*M^day12:206644:-0.004028
B^ino96*M^day13:178823:-0.212889
B^ino96*M^day16:179007:-0.238681
B^ino96*M^day28:133439:0.238553
B^ino96*M^day3:236850:-0.131844
B^ino96*M^day30:162848:-0.186869
B^ino96*M^day31:154719:-0.098275
B^ino96*M^day6:37592:-0.246753
B^ino96*M^day8:163028:-0.240872
B^ino96*M^month2:16211:-0.105853
B^ino96*M^year2014:120688:-0.369763
B^ino97*K^BlackFriday2:135371:-0.220208
B^ino97*K^BlackFridayM2:14250:-0.001311
B^ino97*M^day1:84385:-0.204372
B^ino97*M^day13:183891:0.056465
B^ino97*M^day14:154814:0.253202
B^ino97*M^day17:33682:0.041684
B^ino97*M^day18:67489:0.065708
B^ino97*M^day2:84718:-0.056903
B^ino97*M^day22:92004:-0.000959
B^ino97*M^day24:11791:-0.015040
B^ino97*M^day26:97459:-0.213993
B^ino97*M^day28:163307:0.017493
B^ino97*M^day6:58892:-0.036106
B^ino97*M^month10:244606:0.034157
B^ino97*M^month11:243309:-0.085739
B^ino97*M^month2:19335:-0.344505
B^ino97*M^month3:191953:0.019782
B^ino97*M^year2014:107428:-0.008746
B^ino98*K^BlackFriday3:113080:0.026124
B^ino98*M^day15:74180:-0.087854
B^ino98*M^day19:54020:0.041381
B^ino98*M^day22:245520:0.091476
B^ino98*M^day24:194171:0.068918
B^ino98*M^day28:42399:-0.052639
B^ino98*M^day31:61695:-0.030942
B^ino98*M^day9:25239:-0.103979
B^ino99*K^BlackFriday3:62416:0.643625
B^ino99*M^day14:118434:-0.020091
B^ino99*M^day15:27564:-0.071347
B^ino99*M^day20:175293:-0.139996
B^ino99*M^day21:35778:-0.002101
B^ino99*M^day22:193912:0.038544
B^ino99*M^day25:33236:0.031206
B^ino99*M^day29:164039:0.034312
B^ino99*M^day31:113303:0.165841
B^ino99*M^day6:226320:-0.042327
B^ino99*M^day8:104988:-0.038247
B^ino99*M^day9:76031:0.244186
B^ino99*M^month12:147188:-0.285781
B^ino99*M^month2:252315:-0.116059
B^ino99*M^month3:98253:0.031257
B^ino99*M^month4:21618:-0.015821
B^ino99*M^month6:198782:-0.053968
C^sno1*M^day14:172791:-0.031425
C^sno1*M^day15:198649:-0.023484
C^sno1*M^day23:27331:0.005385
C^sno1*M^day7:161810:0.001671
C^sno1*M^month5:28830:0.000878
C^sno1*M^month6:25643:-0.043271
C^sno1*M^month8:246468:0.060978
C^sno1*M^month9:84088:-0.012963
C^sno10*K^BlackFriday2:48618:-0.036462
C^sno10*M^day10:243810:-0.001785
C^sno10*M^day14:61855:0.041191
C^sno10*M^day15:87185:0.087449
C^sno10*M^day17:143027:0.007273
C^sno10*M^day21:111871:-0.062731
C^sno10*M^day24:164654:-0.071104
C^sno10*M^day28:53450:-0.019246
C^sno10*M^day29:245754:-0.074020
C^sno10*M^day3:83143:0.011380
C^sno10*M^day4:18879:0.025021
C^sno10*M^day5:78523:-0.008086
C^sno10*M^day8:42273:0.052019
C^sno10*M^day9:6082:0.065693
C^sno10*M^month10:71263:0.009203
C^sno10*M^month11:72524:-0.000007
C^sno10*M^month2:190118:0.014474
C^sno11*K^BlackFriday1:41864:-0.091181
C^sno11*K^BlackFriday2:133375:-0.035379
C^sno11*K^BlackFriday3:227832:-0.259072
C^sno11*K^ThanksgivingDay:227973:-0.065130
C^sno11*M^day10:68983:-0.017683
C^sno11*M^day11:121976:-0.031974
C^sno11*M^day16:186335:0.002550
C^sno11*M^day21:197098:0.070263
C^sno11*M^day27:124448:-0.001289
C^sno11*M^day29:68335:-0.023136
C^sno11*M^month3:194021:-0.017013
C^sno11*M^month5:38627:-0.007158
C^sno12*K^BlackFriday:138602:-0.005238
C^sno12*K^ThanksgivingDay:21202:0.184110
C^sno12*M^day14:93405:0.052983
C^sno12*M^day15:51667:0.077093
C^sno12*M^day2:162445:-0.042354
C^sno12*M^day22:153351:-0.008342
C^sno12*M^day23:238825:-0.004359
C^sno12*M^day3:55685:-0.010518
C^sno12*M^month2:228324:0.018864
C^sno12*M^month6:240129:0.006651
C^sno13*K^BlackFriday3:155624:-0.134390
C^sno13*K^BlackFridayM2:67982:0.385986
C^sno13*M^day12:159172:0.077548
C^sno13*M^day13:258167:0.021952
C^sno13*M^day15:182164:0.066002
C^sno13*M^day16:258511:-0.004351
C^sno13*M^day19:210260:-0.007550
C^sno13*M^day22:22848:-0.006693
C^sno13*M^day29:11519:-0.048339
C^sno13*M^day4:252602:-0.012757
C^sno13*M^day6:120872:0.074124
C^sno13*M^day7:243839:0.038460
C^sno13*M^month4:194634:-0.022266
C^sno13*M^month5:110835:0.019663
C^sno14*M^day18:122857:0.076390
C^sno14*M^day8:184392:-0.019080
C^sno14*M^month1:227467:-0.023309
C^sno14*M^month8:255173:0.015238
C^sno15*K^BlackFriday1:259759:-0.069362
C^sno15*K^BlackFridayM2:228025:-0.166196
C^sno15*K^BlackFridayM3:184719:-0.051388
C^sno15*M^day15:46243:-0.043251
C^sno15*M^day16:99064:-0.053742
C^sno15*M^day18:150194:-0.039560
C^sno15*M^day19:83555:-0.048027
C^sno15*M^day20:160690:-0.059061
C^sno15*M^day23:252313:-0.014155
C^sno15*M^day3:42229:0.087139
C^sno15*M^day31:91544:-0.052649
C^sno15*M^day4:108941:0.009539
C^sno15*M^day8:83219:0.018554
C^sno15*M^month1:60880:0.005168
C^sno15*M^month2:198292:-0.027315
C^sno15*M^month8:29086:-0.014501
C^sno16*K^BlackFriday1:25843:0.099466
C^sno16*K^BlackFridayM2:59621:-0.061658
C^sno16*K^BlackFridayM3:82899:-0.047395
C^sno16*K^ThanksgivingDay:245246:-0.320336
C^sno16*M^day1:104174:0.092570
C^sno16*M^day12:232623:-0.004896
C^sno16*M^day14:164849:0.034076
C^sno16*M^day17:23773:-0.001085
C^sno16*M^day18:121070:-0.057209
C^sno16*M^day2:103841:0.088429
C^sno16*M^day20:123374:-0.047629
C^sno16*M^day27:74075:0.035432
C^sno16*M^day28:172708:0.043045
C^sno16*M^day30:186299:-0.031861
C^sno16*M^day6:14659:-0.033664
C^sno16*M^day7:153876:0.029365
C^sno16*M^day9:157100:-0.010528
C^sno16*M^month12:95143:0.019004
C^sno16*M^month7:117625:-0.017133
C^sno17*K^BlackFriday:223111:-0.294684
C^sno17*K^BlackFriday3:76610:0.005937
C^sno17*K^BlackFridayM3:251410:-0.373959
C^sno17*M^day1:197423:0.049710
C^sno17*M^day11:233154:0.068771
C^sno17*M^day12:72046:0.088529
C^sno17*M^day13:34013:0.207520
C^sno17*M^day14:5680:0.004730
C^sno17*M^day15:111422:0.112110
C^sno17*M^day20:226351:-0.041226
C^sno17*M^day21:86864:-0.109724
C^sno17*M^day23:187908:-0.069089
C^sno17*M^day24:156801:-0.069577
C^sno17*M^day25:88390:-0.080573
C^sno17*M^day26:210493:-0.022251
C^sno17*M^day27:242842:-0.027997
C^sno17*M^day28:14181:-0.104979
C^sno17*M^day29:219221:-0.114841
C^sno17*M^day3:107368:0.053246
C^sno17*M^day30:17018:-0.089310
C^sno17*M^day31:25093:-0.070541
C^sno17*M^day5:120084:0.128143
C^sno17*M^day6:175234:0.157830
C^sno17*M^day7:52437:0.131865
C^sno17*M^day9:61549:0.124601
C^sno17*M^month2:131337:-0.000200
C^sno17*M^month4:101600:0.021561
C^sno17*M^month5:181337:-0.003360
C^sno17*M^month6:184556:0.019817
C^sno17*M^month8:95747:-0.019639
C^sno18*M^day10:84116:0.008676
C^sno18*M^day18:88694:-0.007509
C^sno18*M^day22:80563:0.024497
C^sno18*M^day29:85772:-0.006920
C^sno18*M^day3:242737:-0.001812
C^sno18*M^day4:178505:0.025123
C^sno18*M^day5:246349:0.005275
C^sno18*M^month3:176134:-0.005318
C^sno18*M^month6:51125:-0.050059
C^sno19*K^ThanksgivingDay:130075:0.073384
C^sno19*M^day11:219878:-0.013591
C^sno19*M^day12:118090:-0.057155
C^sno19*M^day13:20729:-0.067054
C^sno19*M^day14:49684:-0.062884
C^sno19*M^day27:221374:-0.023943
C^sno19*M^day28:58177:0.050604
C^sno19*M^day5:65840:0.209490
C^sno19*M^day6:161958:0.002536
C^sno19*M^day7:6385:0.036521
C^sno19*M^month10:75220:-0.014174
C^sno19*M^month7:232092:-0.039937
C^sno2*K^BlackFridayM3:119541:-0.007015
C^sno2*M^day1:67528:0.232729
C^sno2*M^day10:88874:0.190616
C^sno2*M^day11:100901:0.039393
C^sno2*M^day15:243673:-0.036784
C^sno2*M^day16:164226:-0.054599
C^sno2*M^day2:66695:0.021667
C^sno2*M^day23:56035:-0.043607
C^sno2*M^day25:220577:-0.034660
C^sno2*M^day30:149149:-0.008446
C^sno2*M^day31:157410:-0.146609
C^sno2*M^day4:174839:0.004185
C^sno2*M^day5:250355:0.010464
C^sno2*M^month4:231431:0.004068
C^sno20*K^BlackFriday1:80891:-0.026759
C^sno20*K^BlackFriday2:233612:0.013632
C^sno20*K^BlackFriday3:188811:0.008317
C^sno20*K^BlackFridayM3:7387:0.001618
C^sno20*K^ThanksgivingDay:189174:0.071427
C^sno20*M^day1:51686:0.059942
C^sno20*M^day10:38148:0.015466
C^sno20*M^day12:185255:0.006611
C^sno20*M^day17:66517:-0.008795
C^sno20*M^day2:51881:0.032203
C^sno20*M^day20:48870:-0.009972
C^sno20*M^day3:158113:0.022346
C^sno20*M^day5:139229:0.071486
C^sno20*M^month1:139396:-0.005983
C^sno20*M^month7:38001:-0.007831
C^sno21*K^BlackFriday1:38802:-0.179285
C^sno21*K^BlackFriday2:146661:0.237692
C^sno21*K^BlackFriday3:216546:0.200880
C^sno21*K^BlackFridayM2:7044:0.057411
C^sno21*K^ThanksgivingDay:216735:0.089331
C^sno21*M^day1:91535:0.147981
C^sno21*M^day10:80237:0.148995
C^sno21*M^day11:125026:0.017725
C^sno21*M^day20:70287:0.018044
C^sno21*M^day22:84810:-0.018096
C^sno21*M^day31:132261:-0.005685
C^sno21*M^day4:182448:-0.035184
C^sno21*M^day5:242612:0.080463
C^sno21*M^month2:26537:-0.020259
C^sno21*M^month8:200867:0.000604
C^sno22*K^BlackFriday:141989:-0.396667
C^sno22*K^BlackFriday2:71527:-0.104870
C^sno22*K^BlackFridayM2:208902:-0.071933
C^sno22*M^day10:135919:0.063157
C^sno22*M^day11:181216:-0.003740
C^sno22*M^day12:21580:-0.011538
C^sno22*M^day14:88850:0.011988
C^sno22*M^day15:65052:0.034430
C^sno22*M^day17:230462:0.054987
C^sno22*M^day22:155848:-0.001045
C^sno22*M^day23:234278:-0.013722
C^sno22*M^day29:136567:-0.010927
C^sno22*M^day9:113999:0.069975
C^sno22*M^month1:42863:0.020585
C^sno22*M^month7:136090:-0.010116
C^sno23*K^BlackFriday1:176206:-0.145175
C^sno23*K^BlackFridayM2:146520:0.107746
C^sno23*K^ThanksgivingDay:92483:-0.064766
C^sno23*M^day29:203049:0.004605
C^sno23*M^day8:1010:-0.046092
C^sno23*M^month1:109361:0.021552
C^sno23*M^month10:110732:-0.001429
C^sno23*M^month5:165157:-0.038691
C^sno23*M^month6:168336:0.011810
C^sno23*M^month7:204740:0.008990
C^sno24*K^BlackFriday:233670:0.056035
C^sno24*K^ThanksgivingDay:122750:-0.378857
C^sno24*M^day1:259182:0.041687
C^sno24*M^day10:239756:0.043320
C^sno24*M^day11:227715:0.006695
C^sno24*M^day12:126511:0.096057
C^sno24*M^day13:29596:0.073743
C^sno24*M^day22:252587:-0.019715
C^sno24*M^day23:141637:-0.019896
C^sno24*M^day24:168896:-0.011007
C^sno24*M^day25:110087:-0.005199
C^sno24*M^day26:246140:-0.034755
C^sno24*M^day5:74325:0.046680
C^sno24*M^day8:46543:0.031569
C^sno24*M^month5:144152:-0.001538
C^sno25*K^BlackFriday1:202359:0.041015
C^sno25*K^BlackFriday2:113920:-0.056740
C^sno25*K^ThanksgivingDay:53114:0.052170
C^sno25*M^day14:127349:-0.033282
C^sno25*M^day15:21627:-0.008067
C^sno25*M^day16:90656:-0.025286
C^sno25*M^day18:174698:-0.023912
C^sno25*M^day19:108219:-0.000378
C^sno25*M^day2:190245:0.002149
C^sno25*M^day25:48643:0.034940
C^sno25*M^day27:152543:-0.007406
C^sno25*M^day3:17453:0.023078
C^sno25*M^day30:107839:-0.001614
C^sno25*M^day31:99648:0.001550
C^sno25*M^day6:216007:0.032750
C^sno25*M^day7:76688:0.037314
C^sno25*M^month10:5813:0.008668
C^sno26*K^BlackFriday2:49080:-0.145086
C^sno26*K^BlackFriday3:118463:0.105097
C^sno26*K^BlackFridayM2:170201:-0.069630
C^sno26*K^ThanksgivingDay:118210:-0.183666
C^sno26*M^day1:255698:0.105877
C^sno26*M^day10:244272:0.148249
C^sno26*M^day11:224063:0.003004
C^sno26*M^day16:24728:-0.021798
C^sno26*M^month3:17058:-0.005475
C^sno26*M^month6:144657:0.008417
C^sno26*M^month9:203074:0.011623
C^sno27*K^BlackFriday:29297:-0.060699
C^sno27*K^BlackFridayM2:92370:0.016824
C^sno27*M^day1:5849:-0.092235
C^sno27*M^day16:233619:0.011177
C^sno27*M^day17:122090:0.054532
C^sno27*M^day2:5526:-0.009611
C^sno27*M^day27:41324:0.049608
C^sno27*M^day28:205459:-0.016843
C^sno27*M^day3:177822:-0.073641
C^sno27*M^day5:180450:-0.048341
C^sno27*M^day6:113012:-0.028020
C^sno27*M^day8:219000:0.007305
C^sno27*M^month7:19278:-0.021575
C^sno28*K^BlackFriday:176936:0.325670
C^sno28*M^day1:186240:0.202053
C^sno28*M^day10:166754:0.226719
C^sno28*M^day11:154221:0.161257
C^sno28*M^day13:86130:0.036502
C^sno28*M^day28:123850:-0.004214
C^sno28*M^day29:167162:-0.083545
C^sno28*M^day3:30663:0.002802
C^sno28*M^day5:443:0.153163
C^sno28*M^day6:227373:0.105410
C^sno28*M^month11:10316:-0.008432
C^sno28*M^month4:22607:-0.005050
C^sno28*M^month9:141328:-0.014436
C^sno29*K^BlackFriday:249905:0.015468
C^sno29*K^BlackFriday1:149124:-0.000505
C^sno29*K^BlackFriday3:105716:0.112896
C^sno29*K^ThanksgivingDay:106377:0.020169
C^sno29*M^day1:242841:0.142777
C^sno29*M^day10:256123:0.200386
C^sno29*M^day12:110296:0.010587
C^sno29*M^day17:163498:0.021030
C^sno29*M^day18:260761:-0.023045
C^sno29*M^day24:185143:-0.015557
C^sno29*M^day30:62924:-0.018883
C^sno29*M^day5:90786:0.070580
C^sno29*M^day8:62776:0.009561
C^sno29*M^day9:18395:-0.013974
C^sno29*M^month11:84821:0.038097
C^sno29*M^year2014:220828:0.002718
C^sno3*K^BlackFriday:157168:-0.003816
C^sno3*K^BlackFriday2:88114:-0.124201
C^sno3*M^day1:131416:0.007854
C^sno3*M^day10:155066:0.171167
C^sno3*M^day18:151384:0.005899
C^sno3*M^day22:143261:0.002079
C^sno3*M^day27:177901:-0.050407
C^sno3*M^day5:55139:0.029960
C^sno3*M^day7:118434:-0.020091
C^sno3*M^day9:127514:-0.007268
C^sno3*M^month1:59450:-0.016239
C^sno3*M^month4:36503:0.009820
C^sno30*K^BlackFriday:252614:-0.039555
C^sno30*K^BlackFridayM3:224083:-0.028544
C^sno30*K^ThanksgivingDay:103806:0.018547
C^sno30*M^day1:245358:-0.099035
C^sno30*M^day10:254604:-0.054403
C^sno30*M^day11:209795:0.048989
C^sno30*M^day12:107567:0.151325
C^sno30*M^day13:14748:0.054549
C^sno30*M^day14:43889:0.107967
C^sno30*M^day15:69247:0.175085
C^sno30*M^day16:14372:0.032450
C^sno30*M^day19:64703:-0.063345
C^sno30*M^day2:245025:0.131029
C^sno30*M^day20:248174:-0.036169
C^sno30*M^day21:126481:-0.080854
C^sno30*M^day23:156485:-0.021584
C^sno30*M^day24:186816:-0.031354
C^sno30*M^day26:232316:-0.035402
C^sno30*M^day27:199131:-0.010030
C^sno30*M^day28:35364:-0.006311
C^sno30*M^day3:73257:0.136975
C^sno30*M^day5:92245:0.031963
C^sno30*M^day6:135619:0.122154
C^sno30*M^day8:65487:0.059740
C^sno30*M^day9:19756:0.101532
C^sno30*M^month12:219943:0.010597
C^sno30*M^month5:162072:-0.042426
C^sno30*M^month7:254969:-0.035208
C^sno31*K^BlackFriday1:164246:-0.052645
C^sno31*K^ThanksgivingDay:88219:0.025802
C^sno31*M^day1:226187:0.011582
C^sno31*M^day2:225476:-0.007754
C^sno31*M^day23:175776:-0.030242
C^sno31*M^day29:207089:-0.015944
C^sno31*M^day30:13022:-0.038828
C^sno31*M^day5:107952:0.007212
C^sno31*M^day7:48241:-0.001933
C^sno31*M^month4:130116:-0.009668
C^sno32*M^day1:145782:-0.010729
C^sno32*M^day11:177307:0.000097
C^sno32*M^day13:114308:0.008862
C^sno32*M^day14:76905:-0.058751
C^sno32*M^day15:35175:-0.012768
C^sno32*M^day19:97191:-0.037806
C^sno32*M^day2:145977:0.015021
C^sno32*M^month11:50874:-0.018933
C^sno32*M^month12:187455:0.009026
C^sno32*M^month7:156897:-0.021468
C^sno33*K^BlackFriday:21926:-0.076715
C^sno33*K^BlackFriday3:137571:0.054600
C^sno33*M^day1:12558:0.229477
C^sno33*M^day10:28140:0.304630
C^sno33*M^day12:142159:-0.019288
C^sno33*M^day16:243524:-0.047558
C^sno33*M^day20:17934:-0.002492
C^sno33*M^day21:156017:0.005127
C^sno33*M^day23:125989:-0.041442
C^sno33*M^day25:158567:-0.031331
C^sno33*M^day27:34491:-0.048157
C^sno33*M^day28:197956:-0.028808
C^sno33*M^day29:27252:-0.065603
C^sno33*M^day30:225371:-0.034060
C^sno33*M^day5:190261:0.207534
C^sno33*M^day6:106147:0.037904
C^sno33*M^day7:261876:0.068633
C^sno33*M^month1:186476:-0.004961
C^sno33*M^month2:78632:-0.009840
C^sno33*M^month6:123597:-0.017840
C^sno33*M^month7:27801:0.035102
C^sno33*M^month9:52894:-0.007934
C^sno34*M^day1:210161:0.169035
C^sno34*M^day10:223251:0.186628
C^sno34*M^day11:243996:0.053689
C^sno34*M^day2:210878:0.005714
C^sno34*M^day20:214001:-0.001023
C^sno34*M^day22:203316:-0.039994
C^sno34*M^day24:152415:-0.011293
C^sno34*M^day30:30116:-0.032460
C^sno34*M^day5:123594:0.156270
C^sno34*M^day9:51123:-0.071954
C^sno34*M^month4:113470:-0.005699
C^sno34*M^month7:223590:-0.000224
C^sno35*K^BlackFriday3:183150:-0.093922
C^sno35*K^ThanksgivingDay:182291:-0.362554
C^sno35*M^day11:28398:0.020143
C^sno35*M^day12:194882:-0.029188
C^sno35*M^day18:44291:-0.003331
C^sno35*M^day21:177020:0.009305
C^sno35*M^day30:238166:-0.022633
C^sno35*M^day4:216636:0.044625
C^sno35*M^day5:144696:-0.080239
C^sno35*M^day9:200769:-0.122429
C^sno35*M^month1:133729:-0.006145
C^sno35*M^month9:7315:0.025158
C^sno36*K^BlackFriday2:166522:-0.128520
C^sno36*K^BlackFridayM2:44315:-0.057079
C^sno36*M^day12:248145:0.040385
C^sno36*M^day13:152802:0.087323
C^sno36*M^day15:221953:0.085808
C^sno36*M^day17:6435:-0.049123
C^sno36*M^day24:46270:-0.052703
C^sno36*M^day27:91301:-0.035266
C^sno36*M^day30:168517:-0.043529
C^sno36*M^day6:31933:0.079425
C^sno36*M^day7:138474:0.104368
C^sno36*M^day9:139346:0.066187
C^sno36*M^month1:211570:0.031554
C^sno36*M^month11:208092:-0.030927
C^sno36*M^month8:239164:0.009928
C^sno37*K^BlackFridayM2:128274:-0.019685
C^sno37*K^BlackFridayM3:24100:0.021767
C^sno37*M^day1:35609:-0.047183
C^sno37*M^day15:146184:0.012867
C^sno37*M^day22:42460:0.013786
C^sno37*M^day29:53347:0.008989
C^sno37*M^day4:206374:-0.007661
C^sno37*M^day5:154914:-0.065292
C^sno37*M^day6:74932:-0.042842
C^sno37*M^day7:214243:-0.008463
C^sno37*M^year2013:119293:-0.002444
C^sno38*M^day1:85008:0.168661
C^sno38*M^day10:69874:0.111331
C^sno38*M^day11:115197:0.021240
C^sno38*M^day12:218705:0.004472
C^sno38*M^day16:182874:-0.018378
C^sno38*M^day2:85855:0.070101
C^sno38*M^day25:202361:-0.017834
C^sno38*M^day27:129957:-0.035062
C^sno38*M^day28:161882:-0.003761
C^sno38*M^day29:71530:-0.020872
C^sno38*M^day3:257111:0.003706
C^sno38*M^day30:134469:-0.010326
C^sno38*M^day31:142650:-0.018788
C^sno38*M^day5:236075:0.143522
C^sno38*M^day6:58301:0.025694
C^sno38*M^day7:164842:-0.015014
C^sno38*M^month11:242652:0.010361
C^sno38*M^month12:108889:-0.010602
C^sno38*M^month5:35686:-0.008382
C^sno39*K^BlackFriday:214833:0.589350
C^sno39*M^day1:205721:-0.081007
C^sno39*M^day10:229243:-0.029958
C^sno39*M^day14:13958:0.108948
C^sno39*M^day19:24904:0.048109
C^sno39*M^day24:148535:0.040249
C^sno39*M^day27:234540:0.063319
C^sno39*M^day30:25292:0.112574
C^sno39*M^day31:17075:0.057205
C^sno39*M^month1:117499:0.005142
C^sno39*M^month12:247504:0.007777
C^sno39*M^month5:189679:-0.033567
C^sno39*M^month6:192602:0.036110
C^sno4*K^BlackFridayM2:223611:-0.021658
C^sno4*M^day13:102530:0.103792
C^sno4*M^day2:136255:-0.029603
C^sno4*M^day25:19737:-0.022009
C^sno4*M^day8:87761:0.012439
C^sno4*M^day9:123954:0.025236
C^sno40*K^BlackFridayM3:178314:-0.263792
C^sno40*M^day1:159159:-0.005191
C^sno40*M^day10:143701:-0.004062
C^sno40*M^day11:188506:-0.016145
C^sno40*M^day14:96424:-0.005165
C^sno40*M^day17:239492:-0.004172
C^sno40*M^day21:15816:-0.012514
C^sno40*M^day23:241820:0.011541
C^sno40*M^month3:117191:-0.001430
C^sno40*M^month4:57976:-0.028481
C^sno41*K^BlackFriday:135642:-0.084851
C^sno41*K^BlackFriday2:76824:-0.062070
C^sno41*K^BlackFridayM3:172111:0.028015
C^sno41*M^month8:94:0.012498
C^sno41*M^month9:166626:-0.004757
C^sno42*K^BlackFriday1:19985:-0.085382
C^sno42*K^ThanksgivingDay:235292:0.026157
C^sno42*M^day1:113676:0.285702
C^sno42*M^day10:123118:0.182169
C^sno42*M^day11:78305:0.023641
C^sno42*M^day12:239181:0.071824
C^sno42*M^day14:174355:0.016937
C^sno42*M^day2:114499:0.053362
C^sno42*M^day29:124790:0.040088
C^sno42*M^day5:223799:0.319753
C^sno42*M^day6:5025:0.079957
C^sno42*M^day9:151374:-0.017398
C^sno42*M^month1:218478:0.026258
C^sno42*M^month4:209859:-0.023218
C^sno42*M^month7:123291:0.032013
C^sno43*K^BlackFriday:2689:-0.076299
C^sno43*K^BlackFriday2:210755:-0.187073
C^sno43*K^BlackFridayM3:47892:-0.121158
C^sno43*M^day1:28201:0.005206
C^sno43*M^day12:160872:0.093558
C^sno43*M^day13:256475:0.051087
C^sno43*M^day14:228150:0.051595
C^sno43*M^day18:8233:-0.034040
C^sno43*M^day19:208120:-0.021129
C^sno43*M^day2:28006:0.093195
C^sno43*M^day21:147030:-0.026004
C^sno43*M^day22:16620:-0.028675
C^sno43*M^day23:111362:-0.039667
C^sno43*M^day24:67975:-0.047023
C^sno43*M^day25:144448:-0.047723
C^sno43*M^day26:23355:-0.114590
C^sno43*M^day29:13651:-0.068471
C^sno43*M^day3:183918:0.104553
C^sno43*M^day31:200451:-0.010316
C^sno43*M^day6:115076:0.022513
C^sno43*M^day7:238035:0.079339
C^sno43*M^day8:208776:0.032674
C^sno43*M^day9:236907:0.003819
C^sno43*M^month1:165707:0.011075
C^sno43*M^month10:171254:-0.021366
C^sno43*M^month12:35680:0.007998
C^sno43*M^month2:93199:0.034257
C^sno43*M^month3:248409:-0.033762
C^sno43*M^month5:108895:-0.009843
C^sno43*M^month7:13246:0.010191
C^sno43*M^month9:37305:-0.023918
C^sno44*K^BlackFriday2:221287:-0.051214
C^sno44*K^BlackFriday3:135520:0.149264
C^sno44*K^BlackFridayM2:83718:-0.038843
C^sno44*M^day1:14605:-0.093045
C^sno44*M^day13:245503:0.004361
C^sno44*M^day14:207890:0.027803
C^sno44*M^day28:200007:-0.031428
C^sno44*M^day3:170314:-0.037109
C^sno44*M^day7:259831:-0.045880
C^sno44*M^month1:184431:0.021871
C^sno44*M^month12:56388:-0.002448
C^sno45*K^BlackFriday1:224439:0.079998
C^sno45*K^ThanksgivingDay:46522:-0.026251
C^sno45*M^day24:260356:-0.022257
C^sno45*M^day28:109280:0.090047
C^sno45*M^day29:181712:0.019551
C^sno45*M^day30:122879:0.034499
C^sno45*M^day9:93672:-0.053056
C^sno45*M^month8:60294:0.019962
C^sno5*K^BlackFridayM3:103762:0.097884
C^sno5*M^day11:118146:-0.024922
C^sno5*M^day12:219694:-0.023614
C^sno5*M^day15:258174:0.015789
C^sno5*M^day18:69231:0.063353
C^sno5*M^day21:200720:0.001600
C^sno5*M^day27:128986:0.082663
C^sno5*M^day31:139589:0.045670
C^sno5*M^day5:235092:-0.128433
C^sno5*M^day6:61378:-0.020807
C^sno5*M^day7:167829:-0.063109
C^sno5*M^day8:131534:-0.039386
C^sno5*M^month7:73208:-0.006067
C^sno6*K^BlackFridayM3:107963:0.087583
C^sno6*M^day1:94342:0.302667
C^sno6*M^day10:76900:0.228215
C^sno6*M^day12:223943:0.013983
C^sno6*M^day2:95177:0.027220
C^sno6*M^day23:44461:-0.013404
C^sno6*M^day26:83348:-0.018261
C^sno6*M^day27:116531:0.067273
C^sno6*M^day3:250049:0.015017
C^sno6*M^day30:143827:-0.066032
C^sno6*M^day31:135596:-0.038803
C^sno6*M^day5:239293:0.218578
C^sno6*M^day6:57131:0.079900
C^sno6*M^day7:180092:0.021222
C^sno6*M^day9:164804:-0.017083
C^sno6*M^month3:185590:0.006431
C^sno7*K^BlackFriday:102860:-0.045179
C^sno7*K^ThanksgivingDay:253556:0.013997
C^sno7*M^day13:160406:0.039700
C^sno7*M^day20:98916:-0.028928
C^sno7*M^day27:82641:0.004263
C^sno7*M^day3:218403:0.015219
C^sno7*M^day5:205663:-0.031864
C^sno7*M^month1:203782:0.006810
C^sno7*M^month4:228011:-0.013208
C^sno7*M^month7:108787:0.010982
C^sno7*M^month8:229448:-0.002439
C^sno7*M^month9:68340:-0.022304
C^sno8*M^day1:194461:-0.061159
C^sno8*M^month6:205918:-0.028410
C^sno9*K^BlackFridayM2:120265:0.040185
C^sno9*K^ThanksgivingDay:164050:-0.353272
C^sno9*M^day1:43970:0.007821
C^sno9*M^day15:138195:0.025188
C^sno9*M^day21:195517:0.001102
C^sno9*M^day29:61624:0.018528
C^sno9*M^day3:134021:-0.003385
C^sno9*M^day31:248552:0.016645
C^sno9*M^day5:163321:-0.049773
C^sno9*M^day9:219264:-0.003410
C^sno9*M^month11:152590:-0.014310
C^sno9*M^month2:109028:-0.001529
C^sno9*M^month4:140301:-0.010456
D^date20120101:252401:-0.125155
D^date20120102:86901:0.064526
D^date20120105:245479:0.084903
D^date20120118:75031:-0.034793
D^date20120125:224793:-0.052061
D^date20120127:252034:-0.060098
D^date20120130:145776:-0.048781
D^date20120131:163635:-0.049417
D^date20120204:18586:0.070556
D^date20120205:106843:-0.006602
D^date20120206:31073:-0.031260
D^date20120209:216180:-0.022933
D^date20120211:17938:0.049153
D^date20120212:258890:0.086398
D^date20120213:52785:0.022973
D^date20120214:229821:-0.092978
D^date20120217:255101:0.057143
D^date20120218:234158:0.006244
D^date20120221:186761:-0.049439
D^date20120223:201603:-0.047221
D^date20120225:249216:0.009928
D^date20120229:145756:-0.012916
D^date20120304:147159:-0.004893
D^date20120308:89712:0.029715
D^date20120311:26656:0.049578
D^date20120312:164499:-0.015802
D^date20120315:70424:0.021149
D^date20120317:15508:-0.042631
D^date20120318:147544:0.026335
D^date20120320:112427:0.000731
D^date20120321:213258:0.010269
D^date20120322:54337:-0.025727
D^date20120324:7353:-0.002150
D^date20120326:148734:-0.046240
D^date20120327:170510:-0.006137
D^date20120328:91756:-0.042772
D^date20120329:12861:-0.016784
D^date20120330:144320:-0.011940
D^date20120401:243433:-0.012414
D^date20120407:213805:0.003529
D^date20120408:68627:-0.059940
D^date20120412:100848:-0.020520
D^date20120418:133662:-0.012792
D^date20120422:186909:0.011406
D^date20120423:200774:-0.010910
D^date20120424:120418:-0.073379
D^date20120425:136503:-0.045518
D^date20120426:118895:-0.021542
D^date20120501:198652:0.051578
D^date20120505:154738:-0.051029
D^date20120507:78217:0.001275
D^date20120508:259441:0.015240
D^date20120513:187381:-0.013025
D^date20120521:18053:-0.049475
D^date20120522:129159:-0.049014
D^date20120524:233951:-0.007023
D^date20120526:194911:-0.024244
D^date20120527:131227:-0.028786
D^date20120601:149884:0.063471
D^date20120602:253465:0.026967
D^date20120605:23550:0.071046
D^date20120607:111604:0.075874
D^date20120611:211684:0.020097
D^date20120619:170372:-0.053395
D^date20120623:158186:0.057239
D^date20120701:221726:-0.076474
D^date20120703:17243:0.061308
D^date20120706:20037:-0.021504
D^date20120707:182136:-0.006915
D^date20120709:11317:-0.013594
D^date20120710:36535:0.055850
D^date20120715:76337:-0.050660
D^date20120718:180659:-0.011126
D^date20120721:216247:-0.028948
D^date20120722:35650:-0.006286
D^date20120726:196453:0.002925
D^date20120801:2219:0.051834
D^date20120804:214121:-0.019376
D^date20120810:157697:0.009032
D^date20120813:229174:0.011088
D^date20120814:32676:-0.035336
D^date20120818:104377:0.024144
D^date20120824:234484:0.017777
D^date20120825:260979:0.034590
D^date20120828:26779:-0.007799
D^date20120902:7767:-0.027640
D^date20120910:88139:-0.001577
D^date20120911:63404:-0.047831
D^date20120913:22931:0.018038
D^date20120914:45817:0.016013
D^date20120915:171573:0.014918
D^date20120916:7859:0.032990
D^date20120918:133257:-0.010699
D^date20120920:226480:-0.068973
D^date20120922:72239:-0.006136
D^date20120929:25704:0.063108
D^date20120930:241043:0.091015
D^date20121002:173660:-0.029420
D^date20121003:93987:-0.050516
D^date20121004:99873:-0.003128
D^date20121005:195450:0.006556
D^date20121006:139036:0.086711
D^date20121017:218355:-0.016364
D^date20121018:64519:-0.061052
D^date20121019:87329:-0.049423
D^date20121020:40907:-0.061707
D^date20121026:9964:0.070052
D^date20121027:131935:0.045883
D^date20121028:239429:0.020199
D^date20121030:91549:-0.027307
D^date20121031:121478:-0.192081
D^date20121109:127610:0.049289
D^date20121111:116531:0.067273
D^date20121118:103693:-0.014338
D^date20121127:38191:-0.006689
D^date20121128:178456:-0.019753
D^date20121129:156348:-0.027270
D^date20121130:72885:-0.000473
D^date20121206:89902:-0.005538
D^date20121208:15928:0.038167
D^date20121209:154668:0.089871
D^date20121210:209876:0.010345
D^date20121211:186461:0.007003
D^date20121212:44448:0.014405
D^date20121215:53751:0.048669
D^date20121216:158901:0.081251
D^date20121217:77843:-0.005126
D^date20121218:120918:0.063873
D^date20121220:121298:-0.003729
D^date20121221:43085:-0.033273
D^date20121223:199314:-0.005154
D^date20121224:107103:-0.010347
D^date20121226:107156:0.019701
D^date20121227:83770:0.019319
D^date20121229:91498:0.056877
D^date20130102:140665:0.072496
D^date20130104:151822:0.009631
D^date20130110:161211:0.013034
D^date20130111:166659:-0.002038
D^date20130116:201849:0.010669
D^date20130117:40158:0.024397
D^date20130119:83971:0.001382
D^date20130120:134729:-0.003084
D^date20130122:30116:-0.032460
D^date20130125:132022:-0.058480
D^date20130127:163103:0.001996
D^date20130131:237536:-0.057487
D^date20130202:156884:0.033637
D^date20130203:82359:-0.060652
D^date20130207:142321:0.079857
D^date20130209:195189:-0.058585
D^date20130210:174181:-0.011712
D^date20130214:62542:-0.070166
D^date20130218:67431:0.060176
D^date20130219:131218:0.032916
D^date20130220:191581:0.065875
D^date20130223:228384:0.094325
D^date20130224:241497:0.030872
D^date20130225:101230:0.060890
D^date20130227:156050:-0.108940
D^date20130228:174650:-0.035248
D^date20130301:118374:-0.027622
D^date20130303:220170:0.010396
D^date20130315:204957:-0.010296
D^date20130319:56792:-0.037277
D^date20130322:241247:-0.001406
D^date20130328:219927:0.004678
D^date20130331:52553:-0.042993
D^date20130406:171431:-0.026732
D^date20130411:214289:-0.029975
D^date20130413:8123:0.026882
D^date20130414:53154:0.014415
D^date20130415:98434:0.015963
D^date20130416:69346:-0.017471
D^date20130417:70918:-0.038726
D^date20130423:14694:-0.001702
D^date20130424:167502:-0.038142
D^date20130425:66860:-0.034067
D^date20130427:215159:-0.026835
D^date20130430:26045:0.033273
D^date20130501:227455:0.087459
D^date20130502:105294:-0.001705
D^date20130512:170143:-0.019656
D^date20130513:16610:0.015618
D^date20130514:116689:0.019789
D^date20130515:60361:-0.006377
D^date20130516:83722:-0.013958
D^date20130523:46449:-0.035997
D^date20130525:225227:-0.067041
D^date20130526:161264:-0.099331
D^date20130602:27990:-0.097842
D^date20130603:192731:0.031782
D^date20130605:99907:0.021461
D^date20130607:164568:0.017262
D^date20130608:30209:-0.006430
D^date20130610:39159:0.052146
D^date20130615:66175:0.033947
D^date20130622:143183:-0.007891
D^date20130626:174410:-0.052392
D^date20130627:58710:-0.069396
D^date20130628:128802:-0.021848
D^date20130630:2450:-0.021166
D^date20130702:256457:0.024806
D^date20130704:43797:-0.080488
D^date20130706:121822:-0.079909
D^date20130709:123114:0.032775
D^date20130726:209324:0.011538
D^date20130801:150815:0.031590
D^date20130802:8862:0.013601
D^date20130805:21934:0.052876
D^date20130806:85378:0.048109
D^date20130814:18370:-0.010612
D^date20130825:93113:0.048528
D^date20130827:95127:-0.042868
D^date20130901:98637:-0.008492
D^date20130902:39991:0.030459
D^date20130903:248013:0.066077
D^date20130904:29259:0.030550
D^date20130910:228061:0.111188
D^date20130911:125619:0.047951
D^date20130917:100247:-0.010161
D^date20130919:41147:-0.013622
D^date20130920:237565:-0.004118
D^date20130922:118242:0.058128
D^date20130923:185077:-0.056111
D^date20130925:128840:-0.006014
D^date20130929:172831:0.010270
D^date20131001:164653:-0.025569
D^date20131012:228991:0.054773
D^date20131013:41151:0.010190
D^date20131014:89150:0.036239
D^date20131018:111290:0.076238
D^date20131019:21411:-0.008850
D^date20131022:130204:-0.003930
D^date20131023:140011:-0.021267
D^date20131024:191478:-0.010800
D^date20131030:229349:-0.053508
D^date20131031:58254:-0.117401
D^date20131103:190081:0.034203
D^date20131104:181004:0.000930
D^date20131107:199113:-0.025392
D^date20131109:238086:-0.008329
D^date20131111:160583:0.031201
D^date20131115:178712:-0.010391
D^date20131118:212152:-0.129702
D^date20131120:150017:-0.018161
D^date20131121:26701:0.089283
D^date20131124:113346:0.047139
D^date20131128:246210:-0.060894
D^date20131129:1278:-0.028388
D^date20131130:88464:-0.024428
D^date20131203:42539:0.076498
D^date20131204:126521:0.188023
D^date20131205:110321:0.058207
D^date20131206:39553:0.025143
D^date20131209:112723:0.069938
D^date20131210:137467:0.048501
D^date20131213:69193:0.028994
D^date20131214:91836:0.062204
D^date20131216:113385:-0.024747
D^date20131219:19448:-0.054629
D^date20131221:249490:-0.091694
D^date20131222:86178:-0.142345
D^date20131228:140727:0.005148
D^date20131229:100053:-0.022042
D^date20140104:53527:0.079641
D^date20140107:256757:0.053851
D^date20140108:60993:0.028082
D^date20140111:124917:0.040856
D^date20140114:27896:-0.034625
D^date20140120:57633:0.078641
D^date20140125:59874:0.030297
D^date20140126:248048:0.040461
D^date20140131:16443:0.048108
D^date20140201:207657:0.126413
D^date20140214:26143:-0.074879
D^date20140216:132736:-0.041465
D^date20140224:257386:-0.006542
D^date20140226:124245:-0.047268
D^date20140301:190530:0.067198
D^date20140303:198709:0.020887
D^date20140304:101673:0.076776
D^date20140305:184322:0.047093
D^date20140318:98766:-0.002911
D^date20140320:118071:-0.106557
D^date20140321:23568:-0.018208
D^date20140327:54641:-0.026072
D^date20140328:135510:-0.060594
D^date20140329:186672:-0.040326
D^date20140401:261249:0.006939
D^date20140406:178840:0.027313
D^date20140412:185415:-0.008370
D^date20140413:238671:0.110600
D^date20140421:236544:-0.004954
D^date20140427:253092:0.003007
D^date20140508:141245:-0.100781
D^date20140512:48026:0.020234
D^date20140517:25622:-0.075502
D^date20140520:207962:-0.002271
D^date20140525:239921:-0.061488
D^date20140530:34843:0.020174
D^date20140531:150082:0.015117
D^date20140603:32997:0.051198
D^date20140608:197001:0.082338
D^date20140610:83904:0.001757
D^date20140613:38338:0.031229
D^date20140614:76333:0.039690
D^date20140616:139449:-0.008968
D^date20140617:11558:0.038736
D^date20140627:157741:-0.007889
D^date20140701:106869:0.005847
D^date20140703:26457:0.037191
D^date20140704:101189:-0.039599
D^date20140705:60585:-0.090952
D^date20140706:217438:-0.155282
D^date20140707:34765:0.007751
D^date20140711:209845:-0.009015
D^date20140717:156768:0.050578
D^date20140720:106654:0.047272
D^date20140722:255385:0.093211
D^date20140723:40854:0.022739
D^date20140724:25579:0.089680
D^date20140725:154190:0.006576
D^date20140801:255304:0.096371
D^date20140813:118479:0.018856
D^date20140815:77545:0.006722
D^date20140821:244348:0.001449
D^date20140823:228127:0.025169
D^date20140824:35973:0.071405
D^date20140831:2020:-0.117627
D^date20140901:206323:0.050678
D^date20140903:189975:0.066112
D^date20140904:5708:-0.029530
D^date20140907:96389:0.007399
D^date20140912:260937:-0.007604
D^date20140913:98870:-0.068496
D^date20140915:67889:-0.017309
D^date20140916:141:-0.028762
D^date20140917:30552:-0.013807
D^date20140918:17009:-0.009095
D^date20140919:251695:-0.012491
D^date20140930:138735:-0.035490
D^date20141003:10010:-0.004777
D^date20141005:20221:0.107917
D^date20141011:42177:-0.022498
D^date20141012:257222:0.001704
D^date20141013:224094:0.074006
D^date20141014:220733:0.025120
D^date20141020:140209:0.034114
D^date20141023:65520:-0.005364
D^date20141026:73130:0.020018
D^date20141027:48734:0.011529
I^-0.00582581483966:27874:-0.064635
I^-0.0200366277146:113587:0.030976
I^-0.0420857921126:22607:-0.005050
I^-0.0556188460397:224887:-0.092649
